booster[0]:
0:[f463<0.163876593] yes=1,no=2,missing=1,gain=4378.98193,cover=9349.25
	1:[f391<0.1953585] yes=3,no=4,missing=3,gain=601.396057,cover=5289.5
		3:[f633<0.0310437996] yes=7,no=8,missing=7,gain=116.514236,cover=3810
			7:[f427<0.16148065] yes=15,no=16,missing=15,gain=91.2105637,cover=3780.25
				15:leaf=-0.375568032,cover=3068.75
				16:leaf=-0.294736832,cover=711.5
			8:[f525<0.0522494018] yes=17,no=18,missing=17,gain=14.6437111,cover=29.75
				17:leaf=0.101960793,cover=24.5
				18:leaf=-0.24000001,cover=5.25
		4:[f43<0.0222565494] yes=9,no=10,missing=9,gain=391.581757,cover=1479.5
			9:[f52<0.0349650532] yes=19,no=20,missing=19,gain=143.380722,cover=1119
				19:leaf=-0.305057019,cover=854.25
				20:leaf=-0.135841951,cover=264.75
			10:[f526<0.217392698] yes=21,no=22,missing=21,gain=209.151321,cover=360.5
				21:leaf=-0.158730164,cover=203.75
				22:leaf=0.147702068,cover=156.75
	2:[f14<0.0506759509] yes=5,no=6,missing=5,gain=1451.50269,cover=4059.75
		5:[f130<0.200348347] yes=11,no=12,missing=11,gain=429.427399,cover=1873
			11:[f427<0.122695595] yes=23,no=24,missing=23,gain=111.302048,cover=955
				23:leaf=-0.3349666,cover=448
				24:leaf=-0.197244093,cover=507
			12:[f87<0.0326146483] yes=25,no=26,missing=25,gain=189.18605,cover=918
				25:leaf=0.032607343,cover=400.75
				26:leaf=-0.150313556,cover=517.25
		6:[f522<0.25452581] yes=13,no=14,missing=13,gain=645.750427,cover=2186.75
			13:[f75<0.0517919511] yes=27,no=28,missing=27,gain=285.56543,cover=1662.75
				27:leaf=-0.0107719926,cover=416.75
				28:leaf=0.180433035,cover=1246
			14:[f130<0.209598199] yes=29,no=30,missing=29,gain=223.063766,cover=524
				29:leaf=-0.242114544,cover=282.75
				30:leaf=0.0194014441,cover=241.25
booster[1]:
0:[f499<0.146384954] yes=1,no=2,missing=1,gain=3037.09399,cover=9120.27539
	1:[f355<0.191377252] yes=3,no=4,missing=3,gain=468.669861,cover=4970.86475
		3:[f644<0.574869752] yes=7,no=8,missing=8,gain=92.1133347,cover=3515.08545
			7:[f587<0.315080285] yes=15,no=16,missing=16,gain=21.8114605,cover=32.8435249
				15:leaf=0.146231085,cover=21.0601768
				16:leaf=-0.18222414,cover=11.783349
			8:[f662<0.0385672003] yes=17,no=18,missing=17,gain=57.8805656,cover=3482.24194
				17:leaf=-0.311034977,cover=3465.71094
				18:leaf=0.0607350282,cover=16.5310459
		4:[f14<0.0456679501] yes=9,no=10,missing=9,gain=190.925323,cover=1455.77917
			9:[f33<0.375604749] yes=19,no=20,missing=19,gain=90.3176117,cover=796.661255
				19:leaf=-0.258455664,cover=721.818726
				20:leaf=-0.0272668544,cover=74.8425598
			10:[f211<0.187417746] yes=21,no=22,missing=21,gain=122.877396,cover=659.117859
				21:leaf=-0.18283464,cover=308.932983
				22:leaf=-0.00990495365,cover=350.184875
	2:[f75<0.0441306531] yes=5,no=6,missing=5,gain=1084.8562,cover=4149.41113
		5:[f346<0.22697705] yes=11,no=12,missing=11,gain=344.284912,cover=1825.42139
			11:[f355<0.464348108] yes=23,no=24,missing=23,gain=181.791595,cover=1049.44922
				23:leaf=-0.265099883,cover=849.7724
				24:leaf=-0.0527470224,cover=199.676773
			12:[f661<0.0247507002] yes=25,no=26,missing=25,gain=167.342453,cover=775.972168
				25:leaf=-0.254152536,cover=131.066025
				26:leaf=-0.00702978997,cover=644.906189
		6:[f621<0.231378436] yes=13,no=14,missing=13,gain=639.568909,cover=2323.9895
			13:[f324<0.352648139] yes=27,no=28,missing=27,gain=221.694595,cover=1654.88513
				27:leaf=0.148428753,cover=1470.59741
				28:leaf=-0.0838999674,cover=184.287796
			14:[f634<0.117445305] yes=29,no=30,missing=29,gain=196.756378,cover=669.10437
				29:leaf=-0.220363453,cover=325.138306
				30:leaf=-0.00352924387,cover=343.966064
booster[2]:
0:[f724<0.167411208] yes=1,no=2,missing=1,gain=2302.63843,cover=8807.74121
	1:[f382<0.152538061] yes=3,no=4,missing=3,gain=473.844696,cover=5029.06982
		3:[f743<0.0613869503] yes=7,no=8,missing=7,gain=72.1234665,cover=3170.61133
			7:[f73<0.040802151] yes=15,no=16,missing=15,gain=49.6822662,cover=3156.0022
				15:leaf=-0.285324007,cover=2478.94531
				16:leaf=-0.223105431,cover=677.057007
			8:[f175<0.0323618501] yes=17,no=18,missing=17,gain=7.80645657,cover=14.6091003
				17:leaf=-0.206855923,cover=1.23806918
				18:leaf=0.210702583,cover=13.3710308
		4:[f46<0.0324508995] yes=9,no=10,missing=9,gain=305.250092,cover=1858.45874
			9:[f391<0.321396887] yes=19,no=20,missing=19,gain=91.4492722,cover=1239.32373
				19:leaf=-0.233706594,cover=894.033997
				20:leaf=-0.112009279,cover=345.289734
			10:[f463<0.0827763006] yes=21,no=22,missing=21,gain=131.435669,cover=619.134949
				21:leaf=-0.160077631,cover=201.686722
				22:leaf=0.0361581556,cover=417.448212
	2:[f46<0.275990069] yes=5,no=6,missing=6,gain=935.260986,cover=3778.67114
		5:[f427<0.111660503] yes=11,no=12,missing=11,gain=288.244568,cover=1577.99353
			11:[f418<0.183508605] yes=23,no=24,missing=23,gain=127.696075,cover=383.603729
				23:leaf=-0.158080995,cover=203.066544
				24:leaf=0.0725539401,cover=180.537201
			12:[f38<0.103084698] yes=25,no=26,missing=25,gain=113.481216,cover=1194.38977
				25:leaf=0.175271213,cover=1016.61432
				26:leaf=0.00207091402,cover=177.775482
		6:[f391<0.215760589] yes=13,no=14,missing=13,gain=379.131622,cover=2200.67773
			13:[f427<0.258442104] yes=27,no=28,missing=27,gain=243.241302,cover=1069.18616
				27:leaf=-0.247037053,cover=757.720276
				28:leaf=-0.036993891,cover=311.465881
			14:[f16<0.0327127501] yes=29,no=30,missing=29,gain=197.150101,cover=1131.49146
				29:leaf=-0.0694453046,cover=836.442444
				30:leaf=0.120439045,cover=295.049072
booster[3]:
0:[f463<0.0800099522] yes=1,no=2,missing=1,gain=1897.10522,cover=8324.16992
	1:[f391<0.282113194] yes=3,no=4,missing=3,gain=144.935455,cover=3538.12256
		3:[f651<0.0325223505] yes=7,no=8,missing=7,gain=44.1468658,cover=2940.14771
			7:[f53<0.0499425977] yes=15,no=16,missing=15,gain=39.0810966,cover=2918.45923
				15:leaf=-0.249863312,cover=2793.2019
				16:leaf=-0.133943766,cover=125.257484
			8:[f456<0.0853764564] yes=17,no=18,missing=17,gain=13.0845585,cover=21.6885014
				17:leaf=-0.150723279,cover=8.08009052
				18:leaf=0.155444309,cover=13.6084118
		4:[f46<0.0315006524] yes=9,no=10,missing=9,gain=76.1813126,cover=597.974854
			9:[f651<0.0453228503] yes=19,no=20,missing=19,gain=33.5646744,cover=408.464935
				19:leaf=-0.191876456,cover=398.984985
				20:leaf=0.175187886,cover=9.47994328
			10:[f499<0.160099745] yes=21,no=22,missing=21,gain=47.626606,cover=189.509918
				21:leaf=-0.121850312,cover=101.875275
				22:leaf=0.0782239363,cover=87.6346512
	2:[f319<0.152136549] yes=5,no=6,missing=5,gain=839.181946,cover=4786.04736
		5:[f238<0.19069235] yes=11,no=12,missing=11,gain=296.385864,cover=1857.46313
			11:[f160<0.0506455004] yes=23,no=24,missing=23,gain=79.0866623,cover=1081.04407
				23:leaf=-0.227811053,cover=907.979065
				24:leaf=-0.0796913505,cover=173.065002
			12:[f14<0.0548233502] yes=25,no=26,missing=25,gain=142.823074,cover=776.419006
				25:leaf=-0.126681715,cover=393.374634
				26:leaf=0.0446975529,cover=383.044403
		6:[f14<0.047976397] yes=13,no=14,missing=13,gain=401.639557,cover=2928.58423
			13:[f661<0.205212399] yes=27,no=28,missing=27,gain=188.32576,cover=1231.23669
				27:leaf=-0.14008449,cover=539.675354
				28:leaf=0.017454315,cover=691.56134
			14:[f724<0.0868745521] yes=29,no=30,missing=29,gain=130.892853,cover=1697.34766
				29:leaf=-0.0205379445,cover=303.872467
				30:leaf=0.124260895,cover=1393.47522
booster[4]:
0:[f661<0.0900314003] yes=1,no=2,missing=1,gain=1533.22437,cover=7952.13379
	1:[f355<0.16046831] yes=3,no=4,missing=3,gain=247.836823,cover=3651.09058
		3:[f16<0.0466572009] yes=7,no=8,missing=7,gain=40.8361931,cover=2368.75024
			7:[f52<0.1507532] yes=15,no=16,missing=15,gain=16.4204483,cover=2037.17163
				15:leaf=-0.245639116,cover=1971.70874
				16:leaf=-0.140148684,cover=65.4628754
			8:[f418<0.139502749] yes=17,no=18,missing=17,gain=37.8234177,cover=331.578583
				17:leaf=-0.208361059,cover=236.079926
				18:leaf=-0.0585008748,cover=95.4986496
		4:[f46<0.198318243] yes=9,no=10,missing=10,gain=127.507545,cover=1282.34058
			9:[f504<0.223568857] yes=19,no=20,missing=19,gain=57.6513557,cover=411.312988
				19:leaf=0.0378606915,cover=224.37323
				20:leaf=-0.112177148,cover=186.939758
			10:[f33<0.350515246] yes=21,no=22,missing=21,gain=61.2379875,cover=871.027527
				21:leaf=-0.18186909,cover=796.037476
				22:leaf=0.00708301691,cover=74.9900818
	2:[f16<0.0359711498] yes=5,no=6,missing=5,gain=722.625,cover=4301.04297
		5:[f427<0.159469247] yes=11,no=12,missing=11,gain=398.533752,cover=2887.12769
			11:[f418<0.439260006] yes=23,no=24,missing=23,gain=173.855331,cover=1323.06885
				23:leaf=-0.191652805,cover=1055.44165
				24:leaf=-0.0111451643,cover=267.627136
			12:[f33<0.212494552] yes=25,no=26,missing=25,gain=165.831131,cover=1564.05896
				25:leaf=-0.0495173931,cover=1082.1936
				26:leaf=0.091412209,cover=481.865356
		6:[f436<0.777772546] yes=13,no=14,missing=14,gain=153.134903,cover=1413.91528
			13:[f616<0.469273865] yes=27,no=28,missing=27,gain=98.636261,cover=1214.82251
				27:leaf=0.0847770572,cover=791.028198
				28:leaf=0.204473928,cover=423.794373
			14:[f355<0.366648346] yes=29,no=30,missing=29,gain=70.3878479,cover=199.092743
				29:leaf=-0.140144542,cover=139.070679
				30:leaf=0.11740315,cover=60.0220566
booster[5]:
0:[f526<0.0750850514] yes=1,no=2,missing=1,gain=1326.39734,cover=7509.49756
	1:[f274<0.264014393] yes=3,no=4,missing=3,gain=156.211746,cover=2939.31079
		3:[f687<0.361462712] yes=7,no=8,missing=8,gain=74.5715561,cover=2171.54199
			7:[f32<0.0537748486] yes=15,no=16,missing=16,gain=12.6529112,cover=22.2333775
				15:leaf=-0.245725662,cover=2.11318302
				16:leaf=0.194566339,cover=20.1201935
			8:[f238<0.305913597] yes=17,no=18,missing=17,gain=43.3818626,cover=2149.30859
				17:leaf=-0.229203537,cover=1909.5686
				18:leaf=-0.1378759,cover=239.739914
		4:[f48<0.0574104488] yes=9,no=10,missing=9,gain=77.48806,cover=767.76886
			9:[f191<0.248989314] yes=19,no=20,missing=19,gain=23.0391369,cover=424.496368
				19:leaf=-0.186282441,cover=363.167969
				20:leaf=-0.0527158491,cover=61.3284073
			10:[f292<0.418123186] yes=21,no=22,missing=21,gain=52.3506775,cover=343.272491
				21:leaf=0.0108795194,cover=243.404099
				22:leaf=-0.160437241,cover=99.8684006
	2:[f130<0.151561499] yes=5,no=6,missing=5,gain=571.651428,cover=4570.18701
		5:[f382<0.162162095] yes=11,no=12,missing=11,gain=192.466782,cover=1757.15186
			11:[f187<0.0547247529] yes=23,no=24,missing=23,gain=65.0114594,cover=777.600647
				23:leaf=-0.205820724,cover=642.832214
				24:leaf=-0.0525913835,cover=134.768417
			12:[f41<0.0442594513] yes=25,no=26,missing=25,gain=108.454727,cover=979.551208
				25:leaf=-0.112262085,cover=491.771454
				26:leaf=0.0207335912,cover=487.779785
		6:[f46<0.0220455006] yes=13,no=14,missing=13,gain=274.5,cover=2813.03491
			13:[f661<0.321390986] yes=27,no=28,missing=27,gain=166.659866,cover=1520.66162
				27:leaf=-0.0751413032,cover=862.786621
				28:leaf=0.0584112778,cover=657.874939
			14:[f4<0.115002796] yes=29,no=30,missing=29,gain=82.1880341,cover=1292.37341
				29:leaf=0.155937627,cover=678.113403
				30:leaf=0.0548421741,cover=614.26001
booster[6]:
0:[f589<0.830295324] yes=1,no=2,missing=2,gain=1062.78845,cover=7067.11377
	1:[f585<0.24960044] yes=3,no=4,missing=3,gain=538.719482,cover=4886.31836
		3:[f74<0.147649094] yes=7,no=8,missing=7,gain=283.470154,cover=3125.41431
			7:[f75<0.0313664004] yes=15,no=16,missing=15,gain=130.631622,cover=1188.78772
				15:leaf=-0.118002526,cover=552.339966
				16:leaf=0.0148422373,cover=636.447754
			8:[f211<0.161330551] yes=17,no=18,missing=17,gain=154.894424,cover=1936.62659
				17:leaf=-0.00708069419,cover=602.343689
				18:leaf=0.115080729,cover=1334.28284
		4:[f238<0.23780036] yes=9,no=10,missing=9,gain=160.485916,cover=1760.9043
			9:[f274<0.365420341] yes=19,no=20,missing=19,gain=108.852264,cover=1134.76794
				19:leaf=-0.184760153,cover=900.357483
				20:leaf=-0.0316198952,cover=234.410416
			10:[f702<0.902873218] yes=21,no=22,missing=22,gain=105.500984,cover=626.136414
				21:leaf=0.0299717579,cover=422.668091
				22:leaf=-0.144971356,cover=203.468338
	2:[f274<0.25707072] yes=5,no=6,missing=5,gain=80.9556274,cover=2180.79541
		5:[f678<0.0522362515] yes=11,no=12,missing=11,gain=28.4852619,cover=1648.55042
			11:[f595<0.0872028992] yes=23,no=24,missing=24,gain=19.764946,cover=1642.69238
				23:leaf=0.26225695,cover=2.71738076
				24:leaf=-0.21228838,cover=1639.9751
			12:[f299<0.309616983] yes=25,no=26,missing=25,gain=8.87119865,cover=5.85803413
				25:leaf=0.318267554,cover=4.65244341
				26:leaf=-0.178484336,cover=1.20559108
		6:[f16<0.0468147472] yes=13,no=14,missing=13,gain=44.9041862,cover=532.244934
			13:[f79<0.203593612] yes=27,no=28,missing=28,gain=24.4270515,cover=427.085693
				27:leaf=-0.056117069,cover=91.7042999
				28:leaf=-0.173363328,cover=335.381378
			14:[f2<0.0555386022] yes=29,no=30,missing=29,gain=22.6205082,cover=105.159241
				29:leaf=0.0754676908,cover=61.3263245
				30:leaf=-0.110811017,cover=43.8329201
booster[7]:
0:[f553<0.969751477] yes=1,no=2,missing=2,gain=889.235229,cover=6723.22607
	1:[f324<0.4249295] yes=3,no=4,missing=3,gain=433.888489,cover=4830.90283
		3:[f15<0.1807089] yes=7,no=8,missing=7,gain=320.833984,cover=4235.29443
			7:[f46<0.412491858] yes=15,no=16,missing=16,gain=178.986649,cover=1917.85156
				15:leaf=0.0247791689,cover=692.120361
				16:leaf=-0.102392949,cover=1225.7312
			8:[f616<0.504964113] yes=17,no=18,missing=17,gain=154.265198,cover=2317.44287
				17:leaf=0.0233672932,cover=1713.09363
				18:leaf=0.140840352,cover=604.349304
		4:[f491<0.0469809994] yes=9,no=10,missing=9,gain=47.5155373,cover=595.608521
			9:[f725<0.0689579546] yes=19,no=20,missing=19,gain=36.4399986,cover=576.922424
				19:leaf=-0.196082637,cover=563.834961
				20:leaf=0.133501917,cover=13.087471
			10:[f211<0.114897847] yes=21,no=22,missing=21,gain=9.12892818,cover=18.6861343
				21:leaf=-0.0886807516,cover=4.99265099
				22:leaf=0.210611656,cover=13.6934843
	2:[f247<0.351457298] yes=5,no=6,missing=5,gain=75.2185211,cover=1892.32324
		5:[f43<0.043199949] yes=11,no=12,missing=11,gain=31.6079102,cover=1569.39319
			11:[f187<0.23802349] yes=23,no=24,missing=23,gain=16.5560226,cover=1381.17078
				23:leaf=-0.211283952,cover=1364.3678
				24:leaf=-0.0108747799,cover=16.8029366
			12:[f405<0.166666508] yes=25,no=26,missing=26,gain=31.8555908,cover=188.222427
				25:leaf=0.0278391186,cover=44.1386223
				26:leaf=-0.165630072,cover=144.083801
		6:[f154<0.0568610504] yes=13,no=14,missing=13,gain=41.6516495,cover=322.930115
			13:[f14<0.0473195985] yes=27,no=28,missing=27,gain=22.6480999,cover=291.010254
				27:leaf=-0.164941177,cover=163.198853
				28:leaf=-0.0520913489,cover=127.811409
			14:[f52<0.0345330499] yes=29,no=30,missing=29,gain=21.4124088,cover=31.9198513
				29:leaf=-0.0659034774,cover=13.5865011
				30:leaf=0.257766992,cover=18.3333511
booster[8]:
0:[f596<0.379610658] yes=1,no=2,missing=2,gain=703.52124,cover=6407.84521
	1:[f603<0.235793203] yes=3,no=4,missing=3,gain=309.011932,cover=3566.77246
		3:[f105<0.0779982954] yes=7,no=8,missing=7,gain=133.825653,cover=2279.75513
			7:[f220<0.410887659] yes=15,no=16,missing=15,gain=108.019585,cover=1494.91016
				15:leaf=0.043589931,cover=948.444824
				16:leaf=0.155231014,cover=546.465393
			8:[f704<0.328107357] yes=17,no=18,missing=18,gain=45.7651825,cover=784.844849
				17:leaf=0.0163164437,cover=527.016541
				18:leaf=-0.0863547698,cover=257.828278
		4:[f324<0.303336024] yes=9,no=10,missing=9,gain=130.847015,cover=1287.01746
			9:[f391<0.0455488488] yes=19,no=20,missing=19,gain=92.4952774,cover=904.915466
				19:leaf=-0.157820269,cover=183.938644
				20:leaf=0.000726126949,cover=720.976807
			10:[f745<0.030726701] yes=21,no=22,missing=21,gain=23.3705692,cover=382.10202
				21:leaf=-0.177371398,cover=376.389893
				22:leaf=0.204964325,cover=5.71210909
	2:[f418<0.208992496] yes=5,no=6,missing=5,gain=210.4879,cover=2841.07251
		5:[f73<0.0472192504] yes=11,no=12,missing=11,gain=78.4263077,cover=1793.57556
			11:[f274<0.320077896] yes=23,no=24,missing=23,gain=23.6815319,cover=1390.28931
				23:leaf=-0.204167396,cover=1157.27563
				24:leaf=-0.133064359,cover=233.013611
			12:[f724<0.348595709] yes=25,no=26,missing=25,gain=50.5063019,cover=403.286285
				25:leaf=-0.122476831,cover=339.437073
				26:leaf=0.070504427,cover=63.8492241
		6:[f75<0.0548055992] yes=13,no=14,missing=13,gain=108.031219,cover=1047.49707
			13:[f74<0.245760098] yes=27,no=28,missing=27,gain=40.9067917,cover=526.400574
				27:leaf=-0.153907642,cover=388.312561
				28:leaf=-0.0269854851,cover=138.087967
			14:[f292<0.361931592] yes=29,no=30,missing=29,gain=57.5612183,cover=521.096497
				29:leaf=0.0559161417,cover=341.023285
				30:leaf=-0.08353962,cover=180.073242
booster[9]:
0:[f609<0.470084548] yes=1,no=2,missing=2,gain=601.409912,cover=6094.64697
	1:[f729<0.226255] yes=3,no=4,missing=3,gain=241.048157,cover=3543.75562
		3:[f3<0.0284210518] yes=7,no=8,missing=7,gain=102.202698,cover=2045.71521
			7:[f301<0.304377705] yes=15,no=16,missing=15,gain=102.141754,cover=1854.35535
				15:leaf=0.0179416854,cover=878.249756
				16:leaf=0.111952305,cover=976.105591
			8:[f12<0.0680466965] yes=17,no=18,missing=17,gain=29.7091446,cover=191.359833
				17:leaf=-0.160074636,cover=100.545731
				18:leaf=-0.00260201143,cover=90.8141022
		4:[f355<0.119677052] yes=9,no=10,missing=9,gain=132.987701,cover=1498.04041
			9:[f160<0.0565595031] yes=19,no=20,missing=19,gain=37.9511528,cover=508.590759
				19:leaf=-0.160275117,cover=421.385712
				20:leaf=-0.0151702138,cover=87.2050476
			10:[f292<0.391960353] yes=21,no=22,missing=22,gain=70.8148346,cover=989.449646
				21:leaf=0.0321373455,cover=613.858154
				22:leaf=-0.0779942572,cover=375.591553
	2:[f355<0.239872009] yes=5,no=6,missing=5,gain=192.928223,cover=2550.89111
		5:[f73<0.0404355973] yes=11,no=12,missing=11,gain=58.8432312,cover=1654.81104
			11:[f684<0.235520497] yes=23,no=24,missing=24,gain=23.7957611,cover=1218.43408
				23:leaf=-0.111017704,cover=168.409012
				24:leaf=-0.193181157,cover=1050.02502
			12:[f319<0.389138639] yes=25,no=26,missing=25,gain=45.404747,cover=436.376892
				25:leaf=-0.123132937,cover=370.434265
				26:leaf=0.0562609918,cover=65.942627
		6:[f14<0.15025115] yes=13,no=14,missing=13,gain=85.3364716,cover=896.0802
			13:[f150<0.291073412] yes=27,no=28,missing=27,gain=61.5687561,cover=647.416809
				27:leaf=-0.107568614,cover=554.075745
				28:leaf=0.0674323887,cover=93.3410568
			14:[f513<0.222191751] yes=29,no=30,missing=29,gain=38.8614845,cover=248.663391
				29:leaf=0.110820748,cover=166.25528
				30:leaf=-0.056468226,cover=82.4081116
booster[10]:
0:[f355<0.0947381482] yes=1,no=2,missing=1,gain=532.175415,cover=5861.65332
	1:[f346<0.414105296] yes=3,no=4,missing=3,gain=186.457367,cover=1868.42786
		3:[f16<0.0460462496] yes=7,no=8,missing=7,gain=70.2349319,cover=1601.69946
			7:[f2<0.0166651011] yes=15,no=16,missing=15,gain=34.1084099,cover=1301.97192
				15:leaf=-0.127103969,cover=449.765381
				16:leaf=-0.195851743,cover=852.206543
			8:[f120<0.0942727029] yes=17,no=18,missing=17,gain=54.3365173,cover=299.72757
				17:leaf=-0.122904979,cover=203.516602
				18:leaf=0.0588875376,cover=96.2109604
		4:[f724<0.144294247] yes=9,no=10,missing=9,gain=57.7744598,cover=266.728394
			9:[f74<0.388107598] yes=19,no=20,missing=19,gain=17.3042927,cover=90.6180573
				19:leaf=-0.130469337,cover=81.2757034
				20:leaf=0.145990893,cover=9.34235477
			10:[f693<0.248676151] yes=21,no=22,missing=21,gain=31.9994812,cover=176.110336
				21:leaf=0.134488866,cover=144.808487
				22:leaf=-0.0862900317,cover=31.3018456
	2:[f2<0.0773457512] yes=5,no=6,missing=5,gain=252.525391,cover=3993.22534
		5:[f87<0.0561058] yes=11,no=12,missing=11,gain=166.553406,cover=2618.84351
			11:[f211<0.0592478998] yes=23,no=24,missing=23,gain=96.6177979,cover=1531.5249
				23:leaf=-0.029360462,cover=259.164246
				24:leaf=0.104508638,cover=1272.3606
			12:[f75<0.0404890031] yes=25,no=26,missing=25,gain=64.4175491,cover=1087.31873
				25:leaf=-0.0728202015,cover=503.571045
				26:leaf=0.024723554,cover=583.74762
		6:[f614<0.247614801] yes=13,no=14,missing=14,gain=85.1713333,cover=1374.38171
			13:[f91<0.1201526] yes=27,no=28,missing=28,gain=51.6048813,cover=754.255005
				27:leaf=0.0853421316,cover=145.553131
				28:leaf=-0.046848502,cover=608.701843
			14:[f130<0.26604861] yes=29,no=30,missing=29,gain=39.3656769,cover=620.126709
				29:leaf=-0.159081757,cover=396.665466
				30:leaf=-0.053833425,cover=223.461243
booster[11]:
0:[f501<0.750382781] yes=1,no=2,missing=2,gain=432.792023,cover=5628.7085
	1:[f621<0.266564041] yes=3,no=4,missing=3,gain=310.826843,cover=3814.1311
		3:[f2<0.0292075984] yes=7,no=8,missing=7,gain=134.823029,cover=2563.89062
			7:[f87<0.0461456999] yes=15,no=16,missing=15,gain=63.2010422,cover=1267.82581
				15:leaf=0.127900586,cover=766.229797
				16:leaf=0.0365073495,cover=501.596039
			8:[f150<0.15442726] yes=17,no=18,missing=17,gain=73.1303101,cover=1296.06482
				17:leaf=-0.0389829464,cover=772.884033
				18:leaf=0.0577664785,cover=523.180725
		4:[f247<0.142181009] yes=9,no=10,missing=9,gain=91.5829697,cover=1250.2406
			9:[f454<0.30848065] yes=19,no=20,missing=19,gain=45.6810036,cover=489.011017
				19:leaf=-0.178732038,cover=367.142395
				20:leaf=-0.0371049196,cover=121.868629
			10:[f229<0.465181649] yes=21,no=22,missing=21,gain=46.8713036,cover=761.229553
				21:leaf=-0.00171409454,cover=548.53772
				22:leaf=-0.112132601,cover=212.691818
	2:[f14<0.0643223524] yes=5,no=6,missing=5,gain=123.445564,cover=1814.57715
		5:[f537<0.470341861] yes=11,no=12,missing=12,gain=39.1953392,cover=1083.30347
			11:[f33<0.191381544] yes=23,no=24,missing=23,gain=28.9632816,cover=342.349213
				23:leaf=-0.138832897,cover=234.175903
				24:leaf=-0.0136517957,cover=108.173302
			12:[f482<0.061274752] yes=25,no=26,missing=26,gain=15.6543922,cover=740.954224
				25:leaf=0.244099572,cover=2.62063289
				26:leaf=-0.183631122,cover=738.333557
		6:[f130<0.171615392] yes=13,no=14,missing=13,gain=74.1156998,cover=731.273682
			13:[f187<0.0892188996] yes=27,no=28,missing=27,gain=35.6492996,cover=378.860291
				27:leaf=-0.13576512,cover=324.615723
				28:leaf=0.0387349688,cover=54.2445793
			14:[f256<0.452544808] yes=29,no=30,missing=29,gain=44.2167625,cover=352.413391
				29:leaf=0.0590970181,cover=258.964844
				30:leaf=-0.100695752,cover=93.4485474
booster[12]:
0:[f319<0.142473936] yes=1,no=2,missing=1,gain=365.20224,cover=5424.22412
	1:[f468<0.18513611] yes=3,no=4,missing=4,gain=174.719376,cover=2154.82861
		3:[f527<0.02866395] yes=7,no=8,missing=7,gain=58.9291039,cover=674.929932
			7:[f675<0.0438098982] yes=15,no=16,missing=15,gain=45.1223984,cover=592.957947
				15:leaf=-0.108717762,cover=193.402679
				16:leaf=0.00874297135,cover=399.555267
			8:[f129<0.0881074965] yes=17,no=18,missing=17,gain=21.2489376,cover=81.9720078
				17:leaf=0.176938668,cover=76.8919983
				18:leaf=-0.216333181,cover=5.08000898
		4:[f477<0.115204103] yes=9,no=10,missing=10,gain=71.0819702,cover=1479.89868
			9:[f508<0.2197918] yes=19,no=20,missing=19,gain=22.3000469,cover=202.125549
				19:leaf=-0.100702778,cover=81.0017014
				20:leaf=0.0341680013,cover=121.123848
			10:[f274<0.180326402] yes=21,no=22,missing=21,gain=44.9916077,cover=1277.77307
				21:leaf=-0.174831212,cover=843.321716
				22:leaf=-0.095204629,cover=434.451385
	2:[f105<0.0532070026] yes=5,no=6,missing=5,gain=158.869553,cover=3269.39526
		5:[f74<0.111981243] yes=11,no=12,missing=11,gain=96.1104355,cover=1650.79553
			11:[f490<0.281335145] yes=23,no=24,missing=23,gain=48.2658463,cover=377.614655
				23:leaf=-0.0996127203,cover=195.592621
				24:leaf=0.0431428365,cover=182.022018
			12:[f616<0.506127357] yes=25,no=26,missing=25,gain=63.1297493,cover=1273.18091
				25:leaf=0.0572350733,cover=938.325439
				26:leaf=0.158405468,cover=334.855408
		6:[f154<0.0464239493] yes=13,no=14,missing=13,gain=87.024025,cover=1618.59985
			13:[f276<0.0948535055] yes=27,no=28,missing=27,gain=57.6382065,cover=1294.40344
				27:leaf=-0.095847033,cover=647.01123
				28:leaf=-0.0114521496,cover=647.392212
			14:[f88<0.0289911497] yes=29,no=30,missing=29,gain=30.1096745,cover=324.19632
				29:leaf=0.0885563642,cover=272.584808
				30:leaf=-0.0769167244,cover=51.6114922
booster[13]:
0:[f490<0.0179442503] yes=1,no=2,missing=1,gain=320.835815,cover=5225.10693
	1:[f274<0.247844398] yes=3,no=4,missing=3,gain=72.2103958,cover=1074.15967
		3:[f16<0.0566684008] yes=7,no=8,missing=7,gain=25.6275959,cover=750.888489
			7:[f80<0.0594727509] yes=15,no=16,missing=15,gain=20.4618969,cover=651.585022
				15:leaf=-0.175747737,cover=630.182739
				16:leaf=0.0221253764,cover=21.402277
			8:[f650<0.186966807] yes=17,no=18,missing=18,gain=21.1824131,cover=99.3034515
				17:leaf=0.105780795,cover=22.977499
				18:leaf=-0.109823845,cover=76.3259506
		4:[f75<0.141654313] yes=9,no=10,missing=9,gain=36.2587471,cover=323.27121
			9:[f191<0.465446889] yes=19,no=20,missing=19,gain=24.2082405,cover=230.136093
				19:leaf=-0.0939898789,cover=225.483414
				20:leaf=0.326553881,cover=4.6526885
			10:[f176<0.0589582995] yes=21,no=22,missing=21,gain=24.7600594,cover=93.1351166
				21:leaf=0.104931138,cover=80.1891174
				22:leaf=-0.184115514,cover=12.9460039
	2:[f74<0.233039454] yes=5,no=6,missing=5,gain=176.653656,cover=4150.94727
		5:[f123<0.208965361] yes=11,no=12,missing=11,gain=133.342377,cover=2547.08203
			11:[f120<0.0697750524] yes=23,no=24,missing=23,gain=108.67057,cover=1731.27869
				23:leaf=-0.100538351,cover=1094.53687
				24:leaf=0.00335272285,cover=636.741821
			12:[f155<0.152384147] yes=25,no=26,missing=25,gain=45.8577919,cover=815.803223
				25:leaf=-0.00781785138,cover=443.099304
				26:leaf=0.0872880816,cover=372.703918
		6:[f220<0.286222935] yes=13,no=14,missing=13,gain=76.9593124,cover=1603.86548
			13:[f160<0.0423520505] yes=27,no=28,missing=27,gain=57.0087013,cover=788.91803
				27:leaf=-0.0253728684,cover=558.132507
				28:leaf=0.0925977528,cover=230.785522
			14:[f364<0.345415801] yes=29,no=30,missing=29,gain=51.9325867,cover=814.947449
				29:leaf=0.128893375,cover=580.258606
				30:leaf=0.017343387,cover=234.688843
booster[14]:
0:[f324<0.459732741] yes=1,no=2,missing=1,gain=305.242065,cover=5135.6377
	1:[f675<0.0226223506] yes=3,no=4,missing=3,gain=205.331543,cover=4524.57568
		3:[f2<0.0208052509] yes=7,no=8,missing=7,gain=71.3466721,cover=1299.14075
			7:[f75<0.0419363976] yes=15,no=16,missing=15,gain=42.2680054,cover=530.283386
				15:leaf=-0.0801797137,cover=220.404922
				16:leaf=0.0341716856,cover=309.878448
			8:[f590<0.049721349] yes=17,no=18,missing=17,gain=39.3357506,cover=768.857361
				17:leaf=-0.119524218,cover=727.874512
				18:leaf=0.0803115815,cover=40.9828453
		4:[f147<0.0490159504] yes=9,no=10,missing=9,gain=121.224899,cover=3225.43506
			9:[f150<0.158235043] yes=19,no=20,missing=19,gain=98.7321091,cover=1902.14734
				19:leaf=-0.0493267998,cover=1045.36987
				20:leaf=0.0422073491,cover=856.777466
			10:[f86<0.0525864512] yes=21,no=22,missing=21,gain=74.4900284,cover=1323.2876
				21:leaf=0.0855878815,cover=1204.88025
				22:leaf=-0.0801531896,cover=118.407455
	2:[f391<0.67805022] yes=5,no=6,missing=5,gain=33.5227089,cover=611.062134
		5:[f581<0.0500492975] yes=11,no=12,missing=11,gain=26.6676693,cover=587.424316
			11:[f725<0.156479046] yes=23,no=24,missing=23,gain=16.9346542,cover=576.244995
				23:leaf=-0.172169104,cover=570.505127
				24:leaf=0.15333584,cover=5.73983955
			12:[f27<0.1605165] yes=25,no=26,missing=25,gain=9.86937237,cover=11.1793079
				25:leaf=0.281816155,cover=6.32597876
				26:leaf=-0.0737627894,cover=4.85332918
		6:[f285<0.10392075] yes=13,no=14,missing=13,gain=17.035471,cover=23.637846
			13:[f240<0.148604244] yes=27,no=28,missing=27,gain=11.6943207,cover=12.3982706
				27:leaf=-0.179038629,cover=9.90259647
				28:leaf=0.244143158,cover=2.49567389
			14:[f202<0.270206332] yes=29,no=30,missing=29,gain=10.7725897,cover=11.2395763
				29:leaf=0.365042716,cover=7.72926474
				30:leaf=-0.0395309478,cover=3.5103116
booster[15]:
0:[f625<0.752497911] yes=1,no=2,missing=2,gain=241.204117,cover=4970.69141
	1:[f717<0.340364099] yes=3,no=4,missing=4,gain=124.679306,cover=3698.82593
		3:[f384<0.1258495] yes=7,no=8,missing=7,gain=81.5851135,cover=2141.81616
			7:[f181<0.0368712023] yes=15,no=16,missing=15,gain=65.6427002,cover=1183.66675
				15:leaf=-0.0194916409,cover=878.973938
				16:leaf=0.0880886316,cover=304.692841
			8:[f751<0.579638004] yes=17,no=18,missing=17,gain=36.6306725,cover=958.149536
				17:leaf=0.0953438655,cover=914.073669
				18:leaf=-0.0898100659,cover=44.0758629
		4:[f276<0.100435898] yes=9,no=10,missing=9,gain=91.3463593,cover=1557.00964
			9:[f47<0.188881159] yes=19,no=20,missing=19,gain=52.1337509,cover=830.083191
				19:leaf=-0.117836192,cover=491.102417
				20:leaf=-0.0158545654,cover=338.980804
			10:[f79<0.287638754] yes=21,no=22,missing=22,gain=52.4822884,cover=726.926453
				21:leaf=0.0942806527,cover=252.416306
				22:leaf=-0.0184198171,cover=474.510132
	2:[f283<0.210465103] yes=5,no=6,missing=5,gain=101.600426,cover=1271.86572
		5:[f43<0.0360529013] yes=11,no=12,missing=11,gain=34.2816124,cover=714.385681
			11:[f123<0.319258004] yes=23,no=24,missing=23,gain=16.1906548,cover=565.358093
				23:leaf=-0.173107013,cover=503.332092
				24:leaf=-0.0634588301,cover=62.0260048
			12:[f74<0.302716672] yes=25,no=26,missing=25,gain=32.5946617,cover=149.027573
				25:leaf=-0.108277202,cover=110.171692
				26:leaf=0.102756195,cover=38.8558807
		6:[f43<0.041007001] yes=13,no=14,missing=13,gain=42.1145287,cover=557.480042
			13:[f265<0.281655937] yes=27,no=28,missing=28,gain=34.1295891,cover=419.853119
				27:leaf=0.0198623892,cover=150.783752
				28:leaf=-0.098803848,cover=269.069366
			14:[f84<1.50834584] yes=29,no=30,missing=30,gain=27.3760395,cover=137.626923
				29:leaf=-0.156914622,cover=17.4757061
				30:leaf=0.105037823,cover=120.151215
booster[16]:
0:[f16<0.0530137494] yes=1,no=2,missing=1,gain=236.438843,cover=4842.12891
	1:[f79<0.250458121] yes=3,no=4,missing=4,gain=186.049988,cover=3638.28833
		3:[f202<0.432905704] yes=7,no=8,missing=7,gain=72.3080597,cover=1099.54102
			7:[f38<0.0440040007] yes=15,no=16,missing=15,gain=53.3238258,cover=950.7276
				15:leaf=0.0922841057,cover=531.087952
				16:leaf=-0.00305801374,cover=419.639679
			8:[f33<0.416762799] yes=17,no=18,missing=17,gain=18.4058304,cover=148.813354
				17:leaf=-0.116856672,cover=140.298691
				18:leaf=0.172430679,cover=8.514678
		4:[f15<0.219345003] yes=9,no=10,missing=9,gain=150.494049,cover=2538.74731
			9:[f346<0.201849744] yes=19,no=20,missing=19,gain=66.7884903,cover=1581.20654
				19:leaf=-0.142090768,cover=901.294983
				20:leaf=-0.0589435659,cover=679.911499
			10:[f130<0.353262961] yes=21,no=22,missing=21,gain=92.8086395,cover=957.540894
				21:leaf=-0.0492135957,cover=645.481018
				22:leaf=0.0834544674,cover=312.059906
	2:[f1<0.0296606012] yes=5,no=6,missing=5,gain=70.0620804,cover=1203.84033
		5:[f84<0.173211604] yes=11,no=12,missing=12,gain=47.9214592,cover=1126.46411
			11:[f187<0.140189156] yes=23,no=24,missing=23,gain=21.2989159,cover=127.321625
				23:leaf=-0.0708444417,cover=110.987007
				24:leaf=0.167602286,cover=16.3346195
			12:[f594<0.364563167] yes=25,no=26,missing=26,gain=36.5806122,cover=999.142456
				25:leaf=0.115478061,cover=705.916382
				26:leaf=0.0313194357,cover=293.226105
		6:[f274<0.445131242] yes=13,no=14,missing=13,gain=15.942955,cover=77.3762894
			13:[f326<0.227453798] yes=27,no=28,missing=27,gain=7.09977674,cover=59.4538689
				27:leaf=-0.203416139,cover=47.1854897
				28:leaf=-0.0302380603,cover=12.2683802
			14:[f429<0.145438999] yes=29,no=30,missing=29,gain=13.2249594,cover=17.9224205
				29:leaf=0.157100812,cover=12.2831802
				30:leaf=-0.189187765,cover=5.63924074
booster[17]:
0:[f486<0.283603311] yes=1,no=2,missing=2,gain=184.465347,cover=4743.20557
	1:[f468<0.271795809] yes=3,no=4,missing=3,gain=105.207542,cover=2797.34058
		3:[f364<0.295150191] yes=7,no=8,missing=7,gain=67.3366089,cover=2194.75928
			7:[f85<0.253389359] yes=15,no=16,missing=15,gain=43.9340057,cover=1238.01001
				15:leaf=0.0977223441,cover=848.868164
				16:leaf=0.0165329557,cover=389.141907
			8:[f155<0.138743401] yes=17,no=18,missing=17,gain=47.9454384,cover=956.749268
				17:leaf=-0.0367705673,cover=551.276978
				18:leaf=0.0537323356,cover=405.472321
		4:[f211<0.135511011] yes=9,no=10,missing=9,gain=48.9156036,cover=602.581238
			9:[f427<0.303417355] yes=19,no=20,missing=19,gain=15.6037235,cover=224.693909
				19:leaf=-0.153132051,cover=178.655304
				20:leaf=-0.0220962334,cover=46.0386047
			10:[f67<0.319604993] yes=21,no=22,missing=21,gain=34.015686,cover=377.88736
				21:leaf=0.0357043259,cover=243.708923
				22:leaf=-0.0893016383,cover=134.178436
	2:[f427<0.12811169] yes=5,no=6,missing=5,gain=92.2313919,cover=1945.86523
		5:[f130<0.164506108] yes=11,no=12,missing=11,gain=50.4722939,cover=888.763672
			11:[f141<0.31887275] yes=23,no=24,missing=23,gain=25.8938675,cover=493.200317
				23:leaf=-0.160412937,cover=464.922241
				24:leaf=0.0355594717,cover=28.2780609
			12:[f14<0.0450456515] yes=25,no=26,missing=25,gain=37.2372589,cover=395.563385
				25:leaf=-0.112213634,cover=204.331787
				26:leaf=0.0103864241,cover=191.231583
		6:[f181<0.0529640988] yes=13,no=14,missing=13,gain=58.8187943,cover=1057.10144
			13:[f16<0.0533244982] yes=27,no=28,missing=27,gain=42.7496948,cover=843.176514
				27:leaf=-0.067807816,cover=644.632324
				28:leaf=0.0381640792,cover=198.544189
			14:[f79<0.0528988019] yes=29,no=30,missing=29,gain=33.1169052,cover=213.924988
				29:leaf=0.0105688162,cover=129.587494
				30:leaf=0.17110981,cover=84.3375092
booster[18]:
0:[f324<0.558686376] yes=1,no=2,missing=1,gain=151.08902,cover=4623.52686
	1:[f87<0.0264598504] yes=3,no=4,missing=3,gain=126.847351,cover=4327.15869
		3:[f432<0.390176415] yes=7,no=8,missing=7,gain=66.7243958,cover=1760.70715
			7:[f20<0.0247398987] yes=15,no=16,missing=15,gain=54.8487206,cover=1560.54724
				15:leaf=0.0999048948,cover=674.674438
				16:leaf=0.024212664,cover=885.872864
			8:[f94<0.401345611] yes=17,no=18,missing=17,gain=20.4581852,cover=200.159805
				17:leaf=-0.0141851427,cover=122.449684
				18:leaf=-0.145006493,cover=77.7101135
		4:[f33<0.279877156] yes=9,no=10,missing=9,gain=90.7299347,cover=2566.45166
			9:[f187<0.0546344519] yes=19,no=20,missing=19,gain=95.6087265,cover=2137.01782
				19:leaf=-0.0671288371,cover=1628.9082
				20:leaf=0.0321841836,cover=508.109528
			10:[f742<0.384794444] yes=21,no=22,missing=21,gain=28.2927876,cover=429.43396
				21:leaf=0.0756204352,cover=380.233673
				22:leaf=-0.0843355432,cover=49.2002869
	2:[f283<0.393850565] yes=5,no=6,missing=5,gain=28.021719,cover=296.368164
		5:[f723<0.0529209003] yes=11,no=12,missing=11,gain=17.2565117,cover=256.16568
			11:[f197<0.0829236954] yes=23,no=24,missing=23,gain=12.0311213,cover=252.36142
				23:leaf=-0.182392523,cover=248.087982
				24:leaf=0.132572159,cover=4.27344704
			12:[f47<0.101137146] yes=25,no=26,missing=25,gain=5.49717569,cover=3.80426407
				25:leaf=-0.086991027,cover=1.25815487
				26:leaf=0.34526813,cover=2.5461092
		6:[f223<0.0719712004] yes=13,no=14,missing=14,gain=17.4767437,cover=40.2024765
			13:leaf=0.54434371,cover=1.30750465
			14:[f153<0.45391196] yes=27,no=28,missing=27,gain=13.2737293,cover=38.8949738
				27:leaf=-0.0778957456,cover=31.800087
				28:leaf=0.208197832,cover=7.09488487
booster[19]:
0:[f108<0.289281905] yes=1,no=2,missing=1,gain=139.653366,cover=4530.04883
	1:[f47<0.154993504] yes=3,no=4,missing=3,gain=102.501976,cover=3806.3689
		3:[f123<0.0897174999] yes=7,no=8,missing=7,gain=83.1969833,cover=1767.47412
			7:[f73<0.0409463495] yes=15,no=16,missing=15,gain=36.7511215,cover=617.695679
				15:leaf=-0.118568875,cover=446.654602
				16:leaf=-0.00952095911,cover=171.041046
			8:[f55<0.0815327466] yes=17,no=18,missing=18,gain=58.3983765,cover=1149.77856
				17:leaf=0.107345402,cover=178.447266
				18:leaf=-0.0168312378,cover=971.331238
		4:[f292<0.410874486] yes=9,no=10,missing=9,gain=59.9360313,cover=2038.89478
			9:[f245<0.173277259] yes=19,no=20,missing=19,gain=48.1536713,cover=1515.87158
				19:leaf=0.0338503495,cover=1078.0929
				20:leaf=0.112495326,cover=437.778625
			10:[f432<0.139510542] yes=21,no=22,missing=21,gain=41.7928047,cover=523.023193
				21:leaf=0.0280354917,cover=293.91217
				22:leaf=-0.0857054666,cover=229.111008
	2:[f80<0.112302549] yes=5,no=6,missing=6,gain=43.8002625,cover=723.679993
		5:[f53<0.0891608447] yes=11,no=12,missing=12,gain=17.470192,cover=68.8791504
			11:[f708<0.180702537] yes=23,no=24,missing=24,gain=17.5095615,cover=58.0472107
				23:leaf=0.143994138,cover=23.8535709
				24:leaf=-0.0753180981,cover=34.1936378
			12:[f497<0.0429777503] yes=25,no=26,missing=25,gain=11.4061728,cover=10.8319416
				25:leaf=0.00383692165,cover=3.94099188
				26:leaf=0.421458542,cover=6.89094973
		6:[f150<0.409617513] yes=13,no=14,missing=13,gain=41.5499153,cover=654.800842
			13:[f185<0.250112504] yes=27,no=28,missing=27,gain=31.0541573,cover=623.633606
				27:leaf=-0.128558487,cover=585.007751
				28:leaf=0.055386968,cover=38.6258278
			14:[f256<0.548911035] yes=29,no=30,missing=30,gain=13.365346,cover=31.167244
				29:leaf=0.186265215,cover=24.0743217
				30:leaf=-0.112970613,cover=7.09292221
booster[20]:
0:[f391<0.0840414986] yes=1,no=2,missing=1,gain=121.894402,cover=4477.53223
	1:[f41<0.0863166004] yes=3,no=4,missing=3,gain=69.9222794,cover=1097.68665
		3:[f427<0.179887503] yes=7,no=8,missing=7,gain=38.9615974,cover=703.857056
			7:[f15<0.462067306] yes=15,no=16,missing=15,gain=25.9517803,cover=486.292114
				15:leaf=-0.143123955,cover=456.573456
				16:leaf=0.0483429991,cover=29.7186642
			8:[f33<0.139090687] yes=17,no=18,missing=17,gain=25.5378819,cover=217.564957
				17:leaf=-0.0939093977,cover=114.705589
				18:leaf=0.04276485,cover=102.85936
		4:[f432<0.381689668] yes=9,no=10,missing=9,gain=46.8459549,cover=393.82959
			9:[f186<0.534057915] yes=19,no=20,missing=19,gain=37.2840996,cover=312.838409
				19:leaf=0.0239627864,cover=297.049072
				20:leaf=0.33044982,cover=15.7893448
			10:[f45<0.432348311] yes=21,no=22,missing=21,gain=13.3016186,cover=80.9911804
				21:leaf=-0.1424319,cover=79.3828964
				22:leaf=0.323563486,cover=1.60828829
	2:[f72<0.300567925] yes=5,no=6,missing=5,gain=73.0771484,cover=3379.84546
		5:[f191<0.182182848] yes=11,no=12,missing=11,gain=78.7411423,cover=2904.77954
			11:[f160<0.0533448011] yes=23,no=24,missing=23,gain=55.943325,cover=2023.323
				23:leaf=-0.0375565253,cover=1549.22559
				24:leaf=0.0408944078,cover=474.097382
			12:[f285<0.0219622999] yes=25,no=26,missing=25,gain=44.0854836,cover=881.456665
				25:leaf=-0.0291490164,cover=203.321091
				26:leaf=0.0768918842,cover=678.135559
		6:[f81<0.386472702] yes=13,no=14,missing=13,gain=70.0941772,cover=475.065735
			13:[f36<0.226721257] yes=27,no=28,missing=27,gain=40.6496925,cover=407.910339
				27:leaf=0.147787556,cover=334.411316
				28:leaf=-0.0162315369,cover=73.4990234
			14:[f45<0.465676904] yes=29,no=30,missing=30,gain=15.4655323,cover=67.1553879
				29:leaf=-0.0318720751,cover=44.9436722
				30:leaf=-0.23378627,cover=22.2117119
booster[21]:
0:[f130<0.0870895535] yes=1,no=2,missing=1,gain=115.608803,cover=4415.26611
	1:[f225<0.290218711] yes=3,no=4,missing=3,gain=73.5731735,cover=1146.8241
		3:[f168<0.184088498] yes=7,no=8,missing=7,gain=36.3624306,cover=757.746704
			7:[f393<0.0969684497] yes=15,no=16,missing=15,gain=32.293457,cover=629.64032
				15:leaf=-0.0879233852,cover=323.029144
				16:leaf=0.00261907512,cover=306.611206
			8:[f247<0.718486011] yes=17,no=18,missing=17,gain=19.6259613,cover=128.106339
				17:leaf=0.0434668697,cover=113.665085
				18:leaf=0.284446687,cover=14.4412575
		4:[f553<0.65209949] yes=9,no=10,missing=9,gain=20.1433735,cover=389.077484
			9:[f744<0.134534746] yes=19,no=20,missing=20,gain=18.2083302,cover=372.064911
				19:leaf=-0.0533545017,cover=77.0567093
				20:leaf=-0.163406834,cover=295.008209
			10:[f621<0.15683955] yes=21,no=22,missing=21,gain=12.9008331,cover=17.0125675
				21:leaf=0.201297745,cover=10.9482203
				22:leaf=-0.141536936,cover=6.06434727
	2:[f20<0.0629014522] yes=5,no=6,missing=5,gain=77.3347168,cover=3268.44189
		5:[f751<0.429239213] yes=11,no=12,missing=11,gain=50.077076,cover=1840.84558
			11:[f195<0.0774201527] yes=23,no=24,missing=23,gain=44.7726173,cover=1588.84924
				23:leaf=0.0812854841,cover=942.41449
				24:leaf=0.0129339844,cover=646.434814
			12:[f409<0.71085763] yes=25,no=26,missing=25,gain=23.0431309,cover=251.996292
				25:leaf=-0.0262795724,cover=236.504303
				26:leaf=-0.270995587,cover=15.4919863
		6:[f528<0.261973858] yes=13,no=14,missing=14,gain=53.5103645,cover=1427.59631
			13:[f228<0.0699110478] yes=27,no=28,missing=27,gain=36.6120262,cover=893.820312
				27:leaf=0.0202456806,cover=822.686951
				28:leaf=-0.128352463,cover=71.1333389
			14:[f141<0.282391131] yes=29,no=30,missing=29,gain=24.0036545,cover=533.776001
				29:leaf=-0.0849632844,cover=486.135223
				30:leaf=0.062774688,cover=47.640789
booster[22]:
0:[f324<0.270293534] yes=1,no=2,missing=1,gain=100.839561,cover=4315.12549
	1:[f3<0.627519011] yes=3,no=4,missing=4,gain=64.1673508,cover=3295.50488
		3:[f72<0.428052962] yes=7,no=8,missing=7,gain=30.8547077,cover=318.017944
			7:[f726<0.253773034] yes=15,no=16,missing=15,gain=18.024435,cover=295.684845
				15:leaf=-0.112519719,cover=239.21228
				16:leaf=0.012839335,cover=56.4725761
			8:[f337<0.246351808] yes=17,no=18,missing=18,gain=15.4604044,cover=22.3331032
				17:leaf=0.348891407,cover=8.4052496
				18:leaf=0.015791839,cover=13.9278526
		4:[f675<0.140961558] yes=9,no=10,missing=9,gain=63.6930237,cover=2977.48706
			9:[f47<0.211028248] yes=19,no=20,missing=19,gain=41.9843369,cover=1506.30127
				19:leaf=-0.0323726796,cover=924.953003
				20:leaf=0.036166098,cover=581.348328
			10:[f670<0.225211397] yes=21,no=22,missing=21,gain=63.5770187,cover=1471.18567
				21:leaf=0.0778108314,cover=1074.77112
				22:leaf=-0.0158510245,cover=396.414612
	2:[f319<0.107981056] yes=5,no=6,missing=5,gain=57.9424248,cover=1019.62054
		5:[f704<0.0414386503] yes=11,no=12,missing=12,gain=22.3784981,cover=376.958679
			11:[f645<0.0670906007] yes=23,no=24,missing=23,gain=9.70998287,cover=6.66519976
				23:leaf=-0.11449378,cover=1.95753396
				24:leaf=0.356213808,cover=4.70766592
			12:[f583<0.175057843] yes=25,no=26,missing=26,gain=15.9742508,cover=370.293488
				25:leaf=0.130979002,cover=8.61792755
				26:leaf=-0.133430406,cover=361.675537
		6:[f48<0.0467979498] yes=13,no=14,missing=13,gain=36.6345215,cover=642.661865
			13:[f681<0.230594397] yes=27,no=28,missing=28,gain=28.3966637,cover=285.39621
				27:leaf=0.0064781378,cover=107.356728
				28:leaf=-0.123558238,cover=178.039474
			14:[f202<0.102862403] yes=29,no=30,missing=29,gain=31.9066811,cover=357.265656
				29:leaf=0.115533412,cover=101.398788
				30:leaf=-0.0165211167,cover=255.866867
booster[23]:
0:[f211<0.188710064] yes=1,no=2,missing=1,gain=93.1968613,cover=4274.07129
	1:[f75<0.0505075976] yes=3,no=4,missing=3,gain=66.6102295,cover=1834.53418
		3:[f33<0.475560695] yes=7,no=8,missing=7,gain=41.5611496,cover=873.734741
			7:[f51<0.530495763] yes=15,no=16,missing=16,gain=30.5185661,cover=823.632507
				15:leaf=-0.105208926,cover=695.661011
				16:leaf=0.00104420714,cover=127.971535
			8:[f463<0.204989046] yes=17,no=18,missing=17,gain=17.4369621,cover=50.1022415
				17:leaf=-0.0574091449,cover=18.1113033
				18:leaf=0.184267208,cover=31.9909401
		4:[f641<0.203788698] yes=9,no=10,missing=10,gain=31.8088055,cover=960.799438
			9:[f81<0.164610103] yes=19,no=20,missing=19,gain=22.5661182,cover=422.490906
				19:leaf=-0.00732088787,cover=209.214401
				20:leaf=0.0849884748,cover=213.276505
			10:[f147<0.166789398] yes=21,no=22,missing=21,gain=33.3111725,cover=538.308533
				21:leaf=-0.0578534715,cover=436.74939
				22:leaf=0.0688336417,cover=101.559143
	2:[f103<0.304168493] yes=5,no=6,missing=5,gain=57.138607,cover=2439.53711
		5:[f155<0.149054557] yes=11,no=12,missing=11,gain=52.7787285,cover=1684.22559
			11:[f292<0.466072261] yes=23,no=24,missing=23,gain=34.2469025,cover=946.82782
				23:leaf=0.0277822167,cover=790.646912
				24:leaf=-0.0744263679,cover=156.180923
			12:[f285<0.0585519001] yes=25,no=26,missing=25,gain=32.605011,cover=737.397766
				25:leaf=0.0215618871,cover=240.077667
				26:leaf=0.11138735,cover=497.320099
		6:[f265<0.49913317] yes=13,no=14,missing=14,gain=31.3116608,cover=755.311584
			13:[f407<0.23781696] yes=27,no=28,missing=27,gain=25.8293018,cover=590.376465
				27:leaf=0.0135009382,cover=515.870605
				28:leaf=-0.111728184,cover=74.5058365
			14:[f191<0.188114896] yes=29,no=30,missing=29,gain=18.1594563,cover=164.935135
				29:leaf=-0.140303016,cover=121.336533
				30:leaf=0.00980890356,cover=43.5986099
booster[24]:
0:[f513<0.351445258] yes=1,no=2,missing=1,gain=114.882828,cover=4218.83838
	1:[f150<0.1191504] yes=3,no=4,missing=3,gain=58.3924751,cover=3426.45703
		3:[f41<0.0352119505] yes=7,no=8,missing=7,gain=52.5808983,cover=1612.68677
			7:[f276<0.0745874494] yes=15,no=16,missing=15,gain=35.272686,cover=694.687439
				15:leaf=-0.109421194,cover=310.978241
				16:leaf=-0.0188098308,cover=383.709198
			8:[f364<0.452629209] yes=17,no=18,missing=17,gain=49.2980156,cover=917.99939
				17:leaf=0.0371136926,cover=727.83783
				18:leaf=-0.0770012736,cover=190.161514
		4:[f751<0.334801197] yes=9,no=10,missing=9,gain=42.7937889,cover=1813.77026
			9:[f110<0.0664913952] yes=19,no=20,missing=19,gain=45.8145981,cover=1455.53516
				19:leaf=0.080614537,cover=822.856995
				20:leaf=0.00903787278,cover=632.678162
			10:[f183<0.154731989] yes=21,no=22,missing=21,gain=21.9007912,cover=358.235016
				21:leaf=-0.0431995504,cover=326.082458
				22:leaf=0.127469018,cover=32.1525574
	2:[f535<0.333772153] yes=5,no=6,missing=5,gain=44.4165916,cover=792.381287
		5:[f617<0.496865094] yes=11,no=12,missing=12,gain=28.8941936,cover=641.87207
			11:[f270<0.336886793] yes=23,no=24,missing=23,gain=12.507165,cover=30.9922256
				23:leaf=0.144367054,cover=25.9882069
				24:leaf=-0.177207097,cover=5.00401831
			12:[f58<0.189108744] yes=25,no=26,missing=26,gain=20.6696873,cover=610.879822
				25:leaf=-0.0543458946,cover=201.096497
				26:leaf=-0.133013159,cover=409.783356
		6:[f596<0.259695053] yes=13,no=14,missing=14,gain=24.1134815,cover=150.509247
			13:[f706<0.165925205] yes=27,no=28,missing=27,gain=13.0806637,cover=101.460526
				27:leaf=-0.0060755848,cover=42.6919708
				28:leaf=0.138735831,cover=58.7685547
			14:[f654<0.141011357] yes=29,no=30,missing=30,gain=16.7319965,cover=49.0487175
				29:leaf=0.114363514,cover=11.3738432
				30:leaf=-0.154450655,cover=37.6748734
booster[25]:
0:[f324<0.549494982] yes=1,no=2,missing=1,gain=80.5437164,cover=4160.56934
	1:[f256<0.54312861] yes=3,no=4,missing=3,gain=70.0855713,cover=3944.69922
		3:[f216<0.496138602] yes=7,no=8,missing=7,gain=68.393074,cover=3430.47583
			7:[f1<0.0295826495] yes=15,no=16,missing=15,gain=53.9700966,cover=3196.94116
				15:leaf=0.0292103682,cover=3007.10181
				16:leaf=-0.0804832503,cover=189.839157
			8:[f53<0.0727507994] yes=17,no=18,missing=18,gain=21.9480019,cover=233.534821
				17:leaf=0.15764533,cover=12.7301493
				18:leaf=-0.104103051,cover=220.804672
		4:[f463<0.456020296] yes=9,no=10,missing=9,gain=25.3711052,cover=514.223328
			9:[f532<0.0735293478] yes=19,no=20,missing=19,gain=20.1077671,cover=348.793915
				19:leaf=-0.101888619,cover=341.352875
				20:leaf=0.21230574,cover=7.44105577
			10:[f400<0.291551411] yes=21,no=22,missing=21,gain=26.3875523,cover=165.429382
				21:leaf=0.0453124791,cover=125.917168
				22:leaf=-0.140080079,cover=39.512207
	2:[f283<0.328144759] yes=5,no=6,missing=5,gain=20.5045471,cover=215.869934
		5:[f186<0.426401258] yes=11,no=12,missing=11,gain=13.0644007,cover=170.135574
			11:[f491<0.121050596] yes=23,no=24,missing=23,gain=8.94806576,cover=155.546295
				23:leaf=-0.174148738,cover=154.216904
				24:leaf=0.236155942,cover=1.32939184
			12:[f288<0.732883573] yes=25,no=26,missing=26,gain=14.6003752,cover=14.5892811
				25:leaf=-0.0998798832,cover=10.4784632
				26:leaf=0.306744784,cover=4.11081743
		6:[f202<0.256867856] yes=13,no=14,missing=14,gain=17.8601589,cover=45.7343597
			13:[f398<0.118645445] yes=27,no=28,missing=27,gain=13.9795866,cover=20.0919704
				27:leaf=-0.0326516591,cover=9.98187923
				28:leaf=0.290534109,cover=10.1100922
			14:[f74<0.324486375] yes=29,no=30,missing=29,gain=7.19488907,cover=25.6423893
				29:leaf=-0.161666617,cover=20.5497398
				30:leaf=0.0894520432,cover=5.09264898
booster[26]:
0:[f2<0.0224922001] yes=1,no=2,missing=1,gain=83.1941605,cover=4108.02783
	1:[f292<0.258041739] yes=3,no=4,missing=3,gain=39.4959412,cover=1811.30774
		3:[f508<0.617147923] yes=7,no=8,missing=7,gain=26.369751,cover=927.330627
			7:[f4<0.0202024989] yes=15,no=16,missing=15,gain=25.136364,cover=846.056335
				15:leaf=0.0794073343,cover=434.795776
				16:leaf=0.0104435794,cover=411.260529
			8:[f706<0.697477639] yes=17,no=18,missing=17,gain=10.8110676,cover=81.2743225
				17:leaf=0.175191268,cover=79.9960785
				18:leaf=-0.280055702,cover=1.27824295
		4:[f51<0.0302788503] yes=9,no=10,missing=9,gain=37.9517403,cover=883.977112
			9:[f146<0.0252051987] yes=19,no=20,missing=19,gain=29.5978622,cover=247.488083
				19:leaf=-0.136662573,cover=25.5021763
				20:leaf=0.0872852206,cover=221.985901
			10:[f324<0.142688945] yes=21,no=22,missing=21,gain=21.0168648,cover=636.489014
				21:leaf=0.0024290774,cover=370.486267
				22:leaf=-0.0711694732,cover=266.002747
	2:[f472<0.672920108] yes=5,no=6,missing=6,gain=66.9037323,cover=2296.72021
		5:[f405<0.479420096] yes=11,no=12,missing=12,gain=48.5452995,cover=1890.81116
			11:[f508<0.674115241] yes=23,no=24,missing=23,gain=37.1661148,cover=1509.42004
				23:leaf=-0.00616360316,cover=1406.61694
				24:leaf=0.117844358,cover=102.803116
			12:[f519<0.156786799] yes=25,no=26,missing=25,gain=19.5986271,cover=381.391205
				25:leaf=-0.104879513,cover=278.5784
				26:leaf=-0.00272997376,cover=102.81279
		6:[f74<0.284964561] yes=13,no=14,missing=13,gain=15.6390057,cover=405.909119
			13:[f92<0.575045407] yes=27,no=28,missing=27,gain=13.5833855,cover=305.315002
				27:leaf=-0.129891396,cover=302.733887
				28:leaf=0.267547697,cover=2.58113527
			14:[f301<0.669339955] yes=29,no=30,missing=29,gain=13.6744537,cover=100.594101
				29:leaf=-0.0527818166,cover=95.2506256
				30:leaf=0.250708103,cover=5.34347296
booster[27]:
0:[f650<0.468406677] yes=1,no=2,missing=2,gain=67.7593689,cover=4071.87427
	1:[f1<0.040451549] yes=3,no=4,missing=3,gain=43.1466026,cover=2396.60083
		3:[f37<0.0443426482] yes=7,no=8,missing=7,gain=54.0721016,cover=2280.45972
			7:[f81<0.17516464] yes=15,no=16,missing=15,gain=51.4479065,cover=2056.92236
				15:leaf=-0.0171988271,cover=1005.71088
				16:leaf=0.0460502319,cover=1051.21155
			8:[f63<0.22720395] yes=17,no=18,missing=17,gain=24.8014317,cover=223.537308
				17:leaf=0.148484126,cover=185.617172
				18:leaf=-0.0282635596,cover=37.9201355
		4:[f527<0.0917266011] yes=9,no=10,missing=9,gain=13.9750175,cover=116.141068
			9:[f15<0.052577652] yes=19,no=20,missing=20,gain=13.1546984,cover=104.879898
				19:leaf=0.0636736751,cover=12.8385668
				20:leaf=-0.148225531,cover=92.0413284
			10:[f162<0.328912079] yes=21,no=22,missing=22,gain=7.42991924,cover=11.2611675
				21:leaf=0.176545903,cover=9.45262337
				22:leaf=-0.19615604,cover=1.80854368
	2:[f154<0.0487148017] yes=5,no=6,missing=5,gain=53.6824417,cover=1675.27356
		5:[f489<0.365209907] yes=11,no=12,missing=12,gain=41.9959297,cover=1367.72656
			11:[f653<0.228666052] yes=23,no=24,missing=24,gain=18.9149513,cover=112.574867
				23:leaf=-0.170911297,cover=11.1360168
				24:leaf=0.0939138532,cover=101.43885
			12:[f15<0.119832352] yes=25,no=26,missing=25,gain=32.4035797,cover=1255.15173
				25:leaf=-0.109094195,cover=382.914948
				26:leaf=-0.039278727,cover=872.236755
		6:[f27<0.232652962] yes=13,no=14,missing=13,gain=32.9122849,cover=307.546967
			13:[f99<0.178104445] yes=27,no=28,missing=27,gain=16.3377838,cover=226.747925
				27:leaf=0.103516877,cover=193.160034
				28:leaf=-0.0464286543,cover=33.5878944
			14:[f0<1.58379459] yes=29,no=30,missing=30,gain=14.7567005,cover=80.7990494
				29:leaf=-0.13839753,cover=46.8638344
				30:leaf=0.0332026146,cover=33.935215
booster[28]:
0:[f564<0.139213353] yes=1,no=2,missing=2,gain=66.5906219,cover=4037.4729
	1:[f675<0.32165581] yes=3,no=4,missing=3,gain=36.1833725,cover=1414.17749
		3:[f86<0.231885344] yes=7,no=8,missing=8,gain=25.1101761,cover=1087.6394
			7:[f182<0.367522895] yes=15,no=16,missing=15,gain=16.2864914,cover=161.17157
				15:leaf=-0.0716543421,cover=155.291275
				16:leaf=0.243580699,cover=5.8802948
			8:[f37<0.0419195965] yes=17,no=18,missing=17,gain=21.6452866,cover=926.467773
				17:leaf=0.0153113902,cover=816.624207
				18:leaf=0.10953071,cover=109.843582
		4:[f645<0.0505065992] yes=9,no=10,missing=9,gain=13.9319906,cover=326.538147
			9:[f540<0.359726965] yes=19,no=20,missing=19,gain=13.7011251,cover=118.166206
				19:leaf=0.0691680387,cover=93.8079529
				20:leaf=-0.0965173393,cover=24.3582516
			10:[f187<0.0685687959] yes=21,no=22,missing=21,gain=14.1299887,cover=208.371933
				21:leaf=0.0929913074,cover=164.836121
				22:leaf=0.221492454,cover=43.5358047
	2:[f36<0.112831347] yes=5,no=6,missing=5,gain=49.9311867,cover=2623.29541
		5:[f191<0.10758055] yes=11,no=12,missing=11,gain=42.3048096,cover=1891.89453
			11:[f181<0.0592844486] yes=23,no=24,missing=23,gain=33.6599579,cover=970.324158
				23:leaf=-0.0505844243,cover=814.902893
				24:leaf=0.05074016,cover=155.421295
			12:[f245<0.17376709] yes=25,no=26,missing=25,gain=32.7956963,cover=921.570312
				25:leaf=0.00155036279,cover=657.680237
				26:leaf=0.0849013254,cover=263.890106
		6:[f513<0.144277453] yes=13,no=14,missing=14,gain=33.7706413,cover=731.400818
			13:[f506<0.0279034004] yes=27,no=28,missing=27,gain=14.3803205,cover=215.798218
				27:leaf=-0.0916185528,cover=51.3404846
				28:leaf=0.0286574792,cover=164.457733
			14:[f590<0.0377829522] yes=29,no=30,missing=29,gain=23.9022121,cover=515.6026
				29:leaf=-0.105755702,cover=482.403961
				30:leaf=0.0680646524,cover=33.1986618
booster[29]:
0:[f87<0.0759420022] yes=1,no=2,missing=1,gain=63.0307732,cover=3985.31299
	1:[f285<0.178007394] yes=3,no=4,missing=3,gain=49.9549866,cover=2497.62842
		3:[f324<0.257825732] yes=7,no=8,missing=7,gain=37.1426125,cover=1782.70325
			7:[f74<0.128258899] yes=15,no=16,missing=15,gain=27.95825,cover=1398.07239
				15:leaf=-0.0305903051,cover=411.042725
				16:leaf=0.0314305685,cover=987.029602
			8:[f94<0.360220551] yes=17,no=18,missing=17,gain=25.7279682,cover=384.630859
				17:leaf=-0.0132920612,cover=225.371216
				18:leaf=-0.118183255,cover=159.259644
		4:[f513<0.0931829959] yes=9,no=10,missing=9,gain=28.4749031,cover=714.925171
			9:[f123<0.0446110517] yes=19,no=20,missing=19,gain=17.9957676,cover=268.304993
				19:leaf=0.0165710282,cover=61.4259644
				20:leaf=0.140077561,cover=206.879013
			10:[f675<0.429564148] yes=21,no=22,missing=21,gain=20.1914959,cover=446.620178
				21:leaf=0.01216261,cover=383.707428
				22:leaf=0.133621261,cover=62.9127464
	2:[f483<0.510531425] yes=5,no=6,missing=6,gain=38.7999115,cover=1487.68457
		5:[f141<0.291810036] yes=11,no=12,missing=11,gain=31.6376419,cover=1113.66077
			11:[f704<0.249270946] yes=23,no=24,missing=24,gain=23.4515915,cover=1006.42108
				23:leaf=0.00268392288,cover=495.938934
				24:leaf=-0.0583477877,cover=510.482147
			12:[f652<0.0972857028] yes=25,no=26,missing=25,gain=19.2356834,cover=107.239616
				25:leaf=0.16881983,cover=53.7619629
				26:leaf=0.000180080824,cover=53.4776535
		6:[f569<0.219896749] yes=13,no=14,missing=14,gain=21.5895844,cover=374.023834
			13:[f362<0.0559017509] yes=27,no=28,missing=27,gain=15.1348,cover=159.554611
				27:leaf=-0.115776174,cover=58.4090118
				28:leaf=0.0113088824,cover=101.145599
			14:[f276<0.35694778] yes=29,no=30,missing=29,gain=10.6227264,cover=214.469238
				29:leaf=-0.142949238,cover=204.262421
				30:leaf=0.061114978,cover=10.206809
booster[30]:
0:[f0<0.0961283445] yes=1,no=2,missing=1,gain=56.1183128,cover=3933.20337
	1:[f74<0.270682007] yes=3,no=4,missing=3,gain=42.0811615,cover=3238.11694
		3:[f249<0.092945151] yes=7,no=8,missing=7,gain=43.184845,cover=2213.73291
			7:[f463<0.396935523] yes=15,no=16,missing=15,gain=28.9069462,cover=1053.83215
				15:leaf=-0.0572855584,cover=726.488098
				16:leaf=0.0142433671,cover=327.344086
			8:[f418<0.0489357002] yes=17,no=18,missing=17,gain=22.4251823,cover=1159.90088
				17:leaf=-0.0510473959,cover=150.171524
				18:leaf=0.0315630659,cover=1009.72931
		4:[f81<0.155516595] yes=9,no=10,missing=9,gain=25.7861156,cover=1024.38391
			9:[f283<0.372637749] yes=19,no=20,missing=19,gain=24.4897499,cover=429.783875
				19:leaf=-0.0267898291,cover=292.77066
				20:leaf=0.0753507838,cover=137.013214
			10:[f195<0.234487697] yes=21,no=22,missing=21,gain=19.0826302,cover=594.599976
				21:leaf=0.0806297809,cover=547.860962
				22:leaf=-0.0516265221,cover=46.7390594
	2:[f91<0.237524047] yes=5,no=6,missing=6,gain=45.4230919,cover=695.086365
		5:[f427<0.138385355] yes=11,no=12,missing=11,gain=28.925293,cover=167.637009
			11:[f753<0.369675338] yes=23,no=24,missing=24,gain=8.92851543,cover=54.906559
				23:leaf=0.00729250768,cover=25.2699413
				24:leaf=-0.153025016,cover=29.6366196
			12:[f28<0.0877316967] yes=25,no=26,missing=25,gain=27.0098915,cover=112.730453
				25:leaf=0.128306493,cover=101.431015
				26:leaf=-0.18666926,cover=11.2994356
		6:[f114<0.155939847] yes=13,no=14,missing=13,gain=26.0788212,cover=527.449341
			13:[f383<0.0392450504] yes=27,no=28,missing=27,gain=12.9314718,cover=336.690308
				27:leaf=-0.128696859,cover=300.099365
				28:leaf=-0.00270862295,cover=36.5909309
			14:[f28<0.117228955] yes=29,no=30,missing=30,gain=19.0345154,cover=190.759048
				29:leaf=0.128678963,cover=27.4876423
				30:leaf=-0.0484711491,cover=163.271408
booster[31]:
0:[f108<0.454556823] yes=1,no=2,missing=1,gain=50.00494,cover=3865.27197
	1:[f165<0.386147946] yes=3,no=4,missing=4,gain=47.7466278,cover=3648.49829
		3:[f599<0.090704903] yes=7,no=8,missing=7,gain=25.5365677,cover=390.63327
			7:[f292<0.339252055] yes=15,no=16,missing=16,gain=25.6037178,cover=374.035156
				15:leaf=-0.0155178746,cover=178.639832
				16:leaf=-0.12024869,cover=195.39534
			8:[f677<0.44072035] yes=17,no=18,missing=18,gain=7.15136003,cover=16.5981045
				17:leaf=0.230095774,cover=14.0671997
				18:leaf=-0.102031052,cover=2.53090525
		4:[f44<0.111404851] yes=9,no=10,missing=10,gain=36.3015442,cover=3257.86499
			9:[f261<0.301368654] yes=19,no=20,missing=19,gain=19.9506245,cover=214.312653
				19:leaf=0.120989583,cover=178.548218
				20:leaf=-0.0416080207,cover=35.7644424
			10:[f324<0.588276029] yes=21,no=22,missing=21,gain=33.4637833,cover=3043.55225
				21:leaf=0.0127860522,cover=2938.46606
				22:leaf=-0.101554267,cover=105.086227
	2:[f134<0.871217787] yes=5,no=6,missing=6,gain=31.8678665,cover=216.773773
		5:[f2<0.147672504] yes=11,no=12,missing=12,gain=5.58168888,cover=6.23715353
			11:[f657<0.281100929] yes=23,no=24,missing=23,gain=0.981989086,cover=4.37875891
				23:leaf=0.500582576,cover=2.82723951
				24:leaf=0.14640066,cover=1.55151916
			12:leaf=0.015124633,cover=1.85839486
		6:[f725<0.0460087992] yes=13,no=14,missing=13,gain=21.3513641,cover=210.536621
			13:[f54<0.119011998] yes=25,no=26,missing=25,gain=19.4326839,cover=199.365692
				25:leaf=-0.0451207496,cover=81.3268814
				26:leaf=-0.172680825,cover=118.038803
			14:[f513<0.273827255] yes=27,no=28,missing=28,gain=8.89761066,cover=11.1709261
				27:leaf=0.257196724,cover=7.99510908
				28:leaf=-0.106710389,cover=3.17581654
booster[32]:
0:[f675<0.195006996] yes=1,no=2,missing=1,gain=44.8590622,cover=3859.58496
	1:[f0<0.0901930928] yes=3,no=4,missing=3,gain=42.2334061,cover=2312.69214
		3:[f92<0.367045313] yes=7,no=8,missing=7,gain=34.4720955,cover=1894.37817
			7:[f423<0.0457209982] yes=15,no=16,missing=15,gain=30.5526047,cover=1817.97266
				15:leaf=0.0369184166,cover=436.38504
				16:leaf=-0.0237305146,cover=1381.58765
			8:[f130<0.156067699] yes=17,no=18,missing=17,gain=16.8029537,cover=76.4054947
				17:leaf=-0.028505398,cover=20.176136
				18:leaf=0.182482332,cover=56.2293625
		4:[f38<0.0727752969] yes=9,no=10,missing=9,gain=27.5606174,cover=418.313873
			9:[f64<0.0550348498] yes=19,no=20,missing=20,gain=22.9902096,cover=187.362839
				19:leaf=0.146816581,cover=28.1704712
				20:leaf=-0.0462561511,cover=159.192368
			10:[f355<0.570073247] yes=21,no=22,missing=21,gain=13.2724848,cover=230.951035
				21:leaf=-0.137251183,cover=203.823273
				22:leaf=0.0112235183,cover=27.1277714
	2:[f670<0.240932152] yes=5,no=6,missing=5,gain=42.9655304,cover=1546.89294
		5:[f681<0.295146137] yes=11,no=12,missing=11,gain=28.2234325,cover=1179.24951
			11:[f195<0.257781446] yes=23,no=24,missing=24,gain=24.2652435,cover=1072.45728
				23:leaf=0.030824488,cover=631.502441
				24:leaf=0.0920028314,cover=440.954773
			12:[f191<0.358796597] yes=25,no=26,missing=25,gain=20.2387238,cover=106.792313
				25:leaf=-0.0762391537,cover=99.2028961
				26:leaf=0.244166523,cover=7.58941412
		6:[f12<0.107837051] yes=13,no=14,missing=13,gain=24.1743011,cover=367.643372
			13:[f153<0.284755588] yes=27,no=28,missing=27,gain=17.3296757,cover=280.328461
				27:leaf=-0.0947227404,cover=189.868851
				28:leaf=0.0114374412,cover=90.4596176
			14:[f114<0.118239447] yes=29,no=30,missing=30,gain=17.1312122,cover=87.3149109
				29:leaf=-0.0553618334,cover=32.2039375
				30:leaf=0.126345441,cover=55.1109734
booster[33]:
0:[f87<0.241315991] yes=1,no=2,missing=1,gain=42.8766441,cover=3827.10864
	1:[f211<0.0579714477] yes=3,no=4,missing=3,gain=42.0762024,cover=3591.29224
		3:[f160<0.0515867025] yes=7,no=8,missing=7,gain=26.4381275,cover=639.526367
			7:[f151<0.0384734012] yes=15,no=16,missing=15,gain=25.84655,cover=494.765594
				15:leaf=-0.0793780535,cover=436.954895
				16:leaf=0.0620996915,cover=57.8106956
			8:[f454<0.319845706] yes=17,no=18,missing=17,gain=26.6979179,cover=144.760788
				17:leaf=0.0877174139,cover=104.099213
				18:leaf=-0.10157901,cover=40.6615791
		4:[f202<0.288574904] yes=9,no=10,missing=9,gain=41.9071121,cover=2951.76587
			9:[f33<0.219781548] yes=19,no=20,missing=19,gain=28.255146,cover=1820.73718
				19:leaf=0.0187339112,cover=1299.70691
				20:leaf=0.0738441274,cover=521.030273
			10:[f155<0.148853004] yes=21,no=22,missing=21,gain=30.4606438,cover=1131.02869
				21:leaf=-0.0399424247,cover=705.363525
				22:leaf=0.0277436823,cover=425.665161
	2:[f358<0.0380327478] yes=5,no=6,missing=5,gain=18.8320675,cover=235.816315
		5:[f141<0.393505841] yes=11,no=12,missing=11,gain=10.5529184,cover=226.904572
			11:[f716<0.0440218002] yes=23,no=24,missing=23,gain=10.8850813,cover=220.014954
				23:leaf=-0.10904821,cover=213.99614
				24:leaf=0.147008568,cover=6.01882029
			12:[f483<0.305797338] yes=25,no=26,missing=26,gain=10.6019983,cover=6.88961792
				25:leaf=0.30837056,cover=4.20513296
				26:leaf=-0.143544421,cover=2.68448472
		6:[f112<0.210158154] yes=13,no=14,missing=13,gain=8.67579079,cover=8.91174221
			13:[f238<0.175285548] yes=27,no=28,missing=28,gain=6.45587587,cover=4.49340677
				27:leaf=-0.193290845,cover=2.54334211
				28:leaf=0.207343265,cover=1.95006454
			14:[f544<0.500936925] yes=29,no=30,missing=30,gain=1.72745609,cover=4.41833496
				29:leaf=0.418697834,cover=3.34731269
				30:leaf=0.0621577799,cover=1.07102239
booster[34]:
0:[f513<0.462249815] yes=1,no=2,missing=1,gain=52.4219971,cover=3800.47192
	1:[f751<0.433784127] yes=3,no=4,missing=3,gain=45.6127739,cover=3466.42017
		3:[f87<0.270913303] yes=7,no=8,missing=7,gain=39.1601639,cover=3041.84766
			7:[f67<0.353689611] yes=15,no=16,missing=15,gain=38.245636,cover=2919.27661
				15:leaf=0.0321971215,cover=2073.81763
				16:leaf=-0.0182525367,cover=845.458984
			8:[f162<0.381294191] yes=17,no=18,missing=17,gain=13.2882042,cover=122.571182
				17:leaf=-0.11846818,cover=111.198318
				18:leaf=0.101850882,cover=11.3728609
		4:[f68<0.150063694] yes=9,no=10,missing=9,gain=22.3342113,cover=424.572479
			9:[f732<0.127388358] yes=19,no=20,missing=19,gain=20.2281914,cover=360.841339
				19:leaf=-0.086618796,cover=344.5914
				20:leaf=0.13609238,cover=16.2499218
			10:[f751<0.587684631] yes=21,no=22,missing=22,gain=13.7992563,cover=63.7311516
				21:leaf=0.113671534,cover=43.7427864
				22:leaf=-0.0833526403,cover=19.988369
	2:[f571<0.494016498] yes=5,no=6,missing=5,gain=17.6525936,cover=334.051788
		5:[f173<0.369701266] yes=11,no=12,missing=11,gain=13.9181471,cover=289.892944
			11:[f60<0.343957394] yes=23,no=24,missing=23,gain=13.232729,cover=282.94397
				23:leaf=-0.114709429,cover=264.955505
				24:leaf=0.0598389469,cover=17.9884644
			12:[f67<0.230647996] yes=25,no=26,missing=26,gain=11.637826,cover=6.9489727
				25:leaf=0.394106865,cover=3.25823164
				26:leaf=-0.0745875835,cover=3.69074106
		6:[f531<0.236275598] yes=13,no=14,missing=13,gain=12.0735397,cover=44.158844
			13:[f193<0.535033464] yes=27,no=28,missing=27,gain=9.66915035,cover=35.5891571
				27:leaf=0.132360503,cover=30.5966663
				28:leaf=-0.147554547,cover=4.99249077
			14:[f122<0.117729396] yes=29,no=30,missing=30,gain=6.03582907,cover=8.56968594
				29:leaf=0.11773733,cover=1.78478229
				30:leaf=-0.241951272,cover=6.78490353
booster[35]:
0:[f3<0.169646442] yes=1,no=2,missing=2,gain=45.0886917,cover=3796.51245
	1:[f12<0.0861667991] yes=3,no=4,missing=3,gain=24.1077328,cover=277.530548
		3:[f508<0.687064052] yes=7,no=8,missing=7,gain=9.98040771,cover=167.44931
			7:[f729<0.0438372493] yes=15,no=16,missing=16,gain=8.58429623,cover=153.770935
				15:leaf=0.0672437921,cover=7.02442646
				16:leaf=-0.151167795,cover=146.746506
			8:[f353<0.0414284989] yes=17,no=18,missing=17,gain=11.0297937,cover=13.6783686
				17:leaf=-0.222403049,cover=3.73654461
				18:leaf=0.143407747,cover=9.94182396
		4:[f72<0.341264129] yes=9,no=10,missing=10,gain=18.6873341,cover=110.081238
			9:[f111<0.312282085] yes=19,no=20,missing=19,gain=13.0517778,cover=85.1053162
				19:leaf=-0.0688153133,cover=81.3357468
				20:leaf=0.272305608,cover=3.76957226
			10:[f591<0.268464804] yes=21,no=22,missing=21,gain=15.6005602,cover=24.9759216
				21:leaf=0.221555024,cover=19.816534
				22:leaf=-0.146442756,cover=5.15938663
	2:[f225<0.393149704] yes=5,no=6,missing=5,gain=35.7553902,cover=3518.98193
		5:[f255<0.0352645963] yes=11,no=12,missing=11,gain=34.9007721,cover=3105.27979
			11:[f513<0.113355353] yes=23,no=24,missing=23,gain=28.9747372,cover=2805.17725
				23:leaf=0.0427244827,cover=1194.5813
				24:leaf=0.00162601494,cover=1610.59583
			12:[f389<0.193374902] yes=25,no=26,missing=25,gain=17.3389854,cover=300.10257
				25:leaf=-0.0751856267,cover=245.341492
				26:leaf=0.0485639535,cover=54.7610626
		6:[f94<0.353835493] yes=13,no=14,missing=14,gain=30.6557255,cover=413.702301
			13:[f220<0.318049401] yes=27,no=28,missing=27,gain=20.4247684,cover=262.656464
				27:leaf=-0.0359377638,cover=212.942764
				28:leaf=0.105237782,cover=49.7136879
			14:[f346<0.480472207] yes=29,no=30,missing=29,gain=15.812088,cover=151.045837
				29:leaf=-0.149418533,cover=127.510086
				30:leaf=0.0278244223,cover=23.5357533
booster[36]:
0:[f191<0.149071157] yes=1,no=2,missing=1,gain=40.8323975,cover=3748.30518
	1:[f569<0.224475503] yes=3,no=4,missing=4,gain=37.7943306,cover=2277.61572
		3:[f183<0.164937899] yes=7,no=8,missing=7,gain=26.5177517,cover=1179.17529
			7:[f357<0.1225335] yes=15,no=16,missing=15,gain=25.5373592,cover=1057.55872
				15:leaf=-0.0298978835,cover=588.985718
				16:leaf=0.0326063223,cover=468.572998
			8:[f153<0.253277183] yes=17,no=18,missing=17,gain=17.2571659,cover=121.616661
				17:leaf=0.137064636,cover=93.4606171
				18:leaf=-0.0401188992,cover=28.1560459
		4:[f120<0.300917625] yes=9,no=10,missing=9,gain=27.1136932,cover=1098.44031
			9:[f283<0.198642552] yes=19,no=20,missing=19,gain=27.1743546,cover=1007.02441
				19:leaf=-0.0909741595,cover=430.532318
				20:leaf=-0.0245477408,cover=576.492065
			10:[f166<0.205217049] yes=21,no=22,missing=21,gain=23.6485386,cover=91.4159622
				21:leaf=0.139932349,cover=56.1570663
				22:leaf=-0.066950269,cover=35.2588959
	2:[f335<0.198777199] yes=5,no=6,missing=5,gain=32.0877914,cover=1470.68945
		5:[f409<0.631135166] yes=11,no=12,missing=12,gain=25.5357437,cover=1134.57825
			11:[f711<0.42634511] yes=23,no=24,missing=23,gain=20.1625137,cover=930.442627
				23:leaf=0.0134451417,cover=828.51947
				24:leaf=0.107330143,cover=101.92318
			12:[f531<0.229927063] yes=25,no=26,missing=25,gain=16.4100494,cover=204.135529
				25:leaf=-0.00895730499,cover=125.44384
				26:leaf=-0.125093624,cover=78.6916962
		6:[f79<0.230046749] yes=13,no=14,missing=13,gain=15.9956102,cover=336.111267
			13:[f463<0.66220665] yes=27,no=28,missing=28,gain=17.2113457,cover=329.323395
				27:leaf=0.0608290806,cover=252.254623
				28:leaf=0.168820247,cover=77.0687714
			14:[f49<0.305187851] yes=29,no=30,missing=30,gain=4.30082226,cover=6.7878623
				29:leaf=-0.301001877,cover=4.49598932
				30:leaf=0.0177979134,cover=2.2918725
booster[37]:
0:[f103<0.328653336] yes=1,no=2,missing=2,gain=36.6715508,cover=3720.84473
	1:[f137<0.241208002] yes=3,no=4,missing=3,gain=34.5981026,cover=2617.86206
		3:[f203<0.214615151] yes=7,no=8,missing=7,gain=31.47019,cover=2268.58057
			7:[f155<0.0330815986] yes=15,no=16,missing=15,gain=29.0939217,cover=2237.19946
				15:leaf=-0.0497414581,cover=336.977234
				16:leaf=0.013941153,cover=1900.22229
			8:[f209<0.246787846] yes=17,no=18,missing=17,gain=7.7270112,cover=31.3811741
				17:leaf=-0.214872882,cover=30.2709332
				18:leaf=0.203299239,cover=1.1102407
		4:[f94<0.275038153] yes=9,no=10,missing=9,gain=23.0296345,cover=349.281464
			9:[f221<0.100662701] yes=19,no=20,missing=19,gain=19.8319359,cover=192.293686
				19:leaf=0.129009739,cover=184.112183
				20:leaf=-0.174627647,cover=8.18150043
			10:[f432<0.0986128002] yes=21,no=22,missing=22,gain=13.1278963,cover=156.987793
				21:leaf=0.109245591,cover=40.1468506
				22:leaf=-0.0219903383,cover=116.840942
	2:[f72<0.31018585] yes=5,no=6,missing=5,gain=29.7608376,cover=1102.98254
		5:[f553<0.557825327] yes=11,no=12,missing=11,gain=19.4012394,cover=949.779114
			11:[f141<0.35906744] yes=23,no=24,missing=23,gain=18.6195927,cover=794.155457
				23:leaf=-0.0656435713,cover=756.199402
				24:leaf=0.0764664561,cover=37.9560471
			12:[f45<0.0482087992] yes=25,no=26,missing=25,gain=16.1118813,cover=155.623642
				25:leaf=-0.0669656023,cover=55.8099556
				26:leaf=0.06624984,cover=99.8136902
		6:[f11<0.106332198] yes=13,no=14,missing=13,gain=24.4672413,cover=153.203476
			13:[f193<0.514812827] yes=27,no=28,missing=27,gain=13.2974634,cover=63.1424408
				27:leaf=0.00361479749,cover=49.2435112
				28:leaf=-0.211957365,cover=13.8989315
			14:[f310<0.0934160948] yes=29,no=30,missing=29,gain=15.6242571,cover=90.0610352
				29:leaf=-0.0418037884,cover=19.4869232
				30:leaf=0.158345342,cover=70.5741119
booster[38]:
0:[f141<0.285989553] yes=1,no=2,missing=1,gain=36.6281166,cover=3715.16089
	1:[f616<0.711024106] yes=3,no=4,missing=3,gain=41.7224045,cover=3355.69458
		3:[f236<0.241186649] yes=7,no=8,missing=7,gain=35.3040924,cover=3145.65869
			7:[f46<0.0949120522] yes=15,no=16,missing=15,gain=33.6189842,cover=2719.3584
				15:leaf=-0.0304265004,cover=2278.72974
				16:leaf=0.0298729874,cover=440.628815
			8:[f132<0.130592853] yes=17,no=18,missing=17,gain=21.3073044,cover=426.300079
				17:leaf=-0.00214495976,cover=220.025436
				18:leaf=0.0872071907,cover=206.274628
		4:[f369<0.0313325524] yes=9,no=10,missing=9,gain=17.9871407,cover=210.036118
			9:[f301<0.195818096] yes=19,no=20,missing=19,gain=9.69470978,cover=38.3919678
				19:leaf=-0.145356908,cover=18.2013836
				20:leaf=0.0513077974,cover=20.1905842
			10:[f585<0.119416401] yes=21,no=22,missing=21,gain=12.9166994,cover=171.64415
				21:leaf=0.136181191,cover=133.761612
				22:leaf=0.00389240612,cover=37.8825455
	2:[f706<0.0619727001] yes=5,no=6,missing=5,gain=18.7443714,cover=359.466309
		5:[f45<0.093670249] yes=11,no=12,missing=11,gain=19.0577374,cover=158.061539
			11:[f735<0.243851855] yes=23,no=24,missing=23,gain=12.0074511,cover=73.9133377
				23:leaf=-0.0021585261,cover=60.3948517
				24:leaf=0.200376377,cover=13.518487
			12:[f324<0.197802395] yes=25,no=26,missing=25,gain=27.1797752,cover=84.148201
				25:leaf=0.268731952,cover=50.1263084
				26:leaf=0.0368066393,cover=34.0218887
		6:[f374<0.0641198978] yes=13,no=14,missing=14,gain=17.9444733,cover=201.40477
			13:[f490<0.0570505001] yes=27,no=28,missing=27,gain=7.96677446,cover=6.68400383
				27:leaf=-0.111953057,cover=1.01498127
				28:leaf=0.402243614,cover=5.66902256
			14:[f92<0.0772117525] yes=29,no=30,missing=29,gain=16.3785686,cover=194.720764
				29:leaf=-0.07080172,cover=67.6200027
				30:leaf=0.0502897277,cover=127.100769
booster[39]:
0:[f2<0.0966608003] yes=1,no=2,missing=1,gain=33.8259621,cover=3702.43286
	1:[f92<0.462041914] yes=3,no=4,missing=3,gain=34.4113045,cover=2685.9729
		3:[f409<0.777948737] yes=7,no=8,missing=7,gain=26.2371254,cover=2629.96704
			7:[f369<0.484780252] yes=15,no=16,missing=15,gain=25.8379097,cover=2599.24658
				15:leaf=0.0150794163,cover=2442.56396
				16:leaf=-0.0684552416,cover=156.682678
			8:[f650<0.0485667996] yes=17,no=18,missing=18,gain=10.759654,cover=30.7203655
				17:leaf=0.170321614,cover=2.58068776
				18:leaf=-0.209235415,cover=28.139679
		4:[f108<0.213128239] yes=9,no=10,missing=9,gain=13.4051294,cover=56.0058174
			9:[f337<0.595062971] yes=19,no=20,missing=19,gain=10.6307344,cover=49.0135841
				19:leaf=0.227028593,cover=45.5535088
				20:leaf=-0.110977829,cover=3.46007729
			10:[f454<0.285532892] yes=21,no=22,missing=21,gain=6.99215174,cover=6.9922328
				21:leaf=-0.205433369,cover=4.85870552
				22:leaf=0.16885899,cover=2.13352728
	2:[f141<0.0986326486] yes=5,no=6,missing=5,gain=24.6632328,cover=1016.45996
		5:[f276<0.151522845] yes=11,no=12,missing=11,gain=19.401413,cover=499.192963
			11:[f56<0.0232907496] yes=23,no=24,missing=24,gain=13.2648888,cover=341.046295
				23:leaf=0.150981292,cover=8.04284191
				24:leaf=-0.0963726863,cover=333.003448
			12:[f409<0.579123199] yes=25,no=26,missing=26,gain=13.5683498,cover=158.146698
				25:leaf=0.0236268044,cover=127.37616
				26:leaf=-0.12235862,cover=30.7705326
		6:[f45<0.0269076489] yes=13,no=14,missing=13,gain=16.943573,cover=517.266968
			13:[f357<0.252271503] yes=27,no=28,missing=27,gain=11.9963465,cover=69.1023865
				27:leaf=-0.126807675,cover=59.0149307
				28:leaf=0.101612449,cover=10.0874605
			14:[f216<0.376774192] yes=29,no=30,missing=30,gain=17.2240543,cover=448.164581
				29:leaf=0.0339265577,cover=350.532806
				30:leaf=-0.0606638379,cover=97.6317902
booster[40]:
0:[f272<0.281973541] yes=1,no=2,missing=1,gain=32.2406731,cover=3684.01099
	1:[f564<0.138545245] yes=3,no=4,missing=4,gain=31.7339077,cover=3284.71997
		3:[f420<0.208406106] yes=7,no=8,missing=7,gain=22.9359951,cover=1164.71912
			7:[f299<0.119121701] yes=15,no=16,missing=15,gain=17.8553867,cover=904.728149
				15:leaf=-0.0210665204,cover=474.175781
				16:leaf=0.0351312533,cover=430.552338
			8:[f517<0.40151301] yes=17,no=18,missing=18,gain=16.6055965,cover=259.990967
				17:leaf=0.103614151,cover=189.734482
				18:leaf=-0.00999200996,cover=70.2565002
		4:[f247<0.628444433] yes=9,no=10,missing=9,gain=32.0509109,cover=2120.00098
			9:[f58<0.299894214] yes=19,no=20,missing=19,gain=26.2933044,cover=1922.41797
				19:leaf=-0.00788251497,cover=1096.05188
				20:leaf=-0.0551218688,cover=826.366089
			10:[f706<0.0735716] yes=21,no=22,missing=21,gain=19.8290901,cover=197.582962
				21:leaf=0.112615623,cover=109.532715
				22:leaf=-0.0144531578,cover=88.0502548
	2:[f4<0.0207489002] yes=5,no=6,missing=5,gain=16.8160076,cover=399.290802
		5:[f383<0.0634116977] yes=11,no=12,missing=11,gain=14.3936634,cover=101.19796
			11:[f33<0.113789201] yes=23,no=24,missing=23,gain=11.7556534,cover=95.4399872
				23:leaf=0.0429797731,cover=32.1520233
				24:leaf=0.192735985,cover=63.2879601
			12:[f517<0.351115346] yes=25,no=26,missing=26,gain=5.98087645,cover=5.75797272
				25:leaf=-0.326029778,cover=2.86945939
				26:leaf=0.0417142622,cover=2.88851357
		6:[f105<0.0289706998] yes=13,no=14,missing=13,gain=22.5694523,cover=298.092834
			13:[f693<0.458467066] yes=27,no=28,missing=27,gain=15.6375332,cover=105.786392
				27:leaf=0.130495206,cover=94.5612106
				28:leaf=-0.111783169,cover=11.2251883
			14:[f553<0.686404943] yes=29,no=30,missing=30,gain=16.3338928,cover=192.306442
				29:leaf=-0.0402240194,cover=153.060577
				30:leaf=0.102879219,cover=39.2458687
booster[41]:
0:[f2<0.123389706] yes=1,no=2,missing=1,gain=31.2367592,cover=3683.11694
	1:[f17<0.182072312] yes=3,no=4,missing=4,gain=29.3122692,cover=2926.59448
		3:[f69<0.119050547] yes=7,no=8,missing=7,gain=20.4298267,cover=233.262726
			7:[f15<0.195483208] yes=15,no=16,missing=15,gain=12.356987,cover=132.287506
				15:leaf=0.190149039,cover=65.8184052
				16:leaf=0.0667942762,cover=66.469101
			8:[f274<0.521391451] yes=17,no=18,missing=17,gain=16.9491005,cover=100.975227
				17:leaf=0.0426215455,cover=87.3993301
				18:leaf=-0.190164939,cover=13.575902
		4:[f312<0.31812036] yes=9,no=10,missing=9,gain=27.489027,cover=2693.33179
			9:[f52<0.0813646466] yes=19,no=20,missing=19,gain=29.3211346,cover=2460.59424
				19:leaf=-0.0116638001,cover=2076.01758
				20:leaf=0.0483902581,cover=384.576599
			10:[f189<0.381709754] yes=21,no=22,missing=21,gain=18.4798489,cover=232.737518
				21:leaf=0.0858044177,cover=214.978729
				22:leaf=-0.121816576,cover=17.7587891
	2:[f52<0.0402778499] yes=5,no=6,missing=5,gain=22.2088566,cover=756.522522
		5:[f560<0.232228994] yes=11,no=12,missing=12,gain=16.3420849,cover=538.361206
			11:[f189<0.240224093] yes=23,no=24,missing=24,gain=15.3624239,cover=264.026093
				23:leaf=0.014472506,cover=168.695251
				24:leaf=-0.0855671614,cover=95.3308487
			12:[f247<0.639342725] yes=25,no=26,missing=25,gain=13.0647516,cover=274.335083
				25:leaf=-0.104633704,cover=251.781448
				26:leaf=0.0523454919,cover=22.5536556
		6:[f657<0.663098752] yes=13,no=14,missing=13,gain=14.8144321,cover=218.161301
			13:[f318<0.0667262003] yes=27,no=28,missing=27,gain=12.8540831,cover=207.844742
				27:leaf=0.0197268613,cover=193.623947
				28:leaf=-0.171125472,cover=14.2207966
			14:[f86<0.125960559] yes=29,no=30,missing=30,gain=13.0820713,cover=10.3165569
				29:leaf=-0.107053161,cover=2.72792983
				30:leaf=0.363915443,cover=7.58862734
booster[42]:
0:[f99<0.268326461] yes=1,no=2,missing=1,gain=33.238842,cover=3622.68359
	1:[f67<0.316472501] yes=3,no=4,missing=3,gain=27.7209377,cover=3339.20898
		3:[f49<0.229864299] yes=7,no=8,missing=7,gain=43.9591751,cover=2166.3457
			7:[f751<0.251056433] yes=15,no=16,missing=15,gain=25.313139,cover=487.236511
				15:leaf=-0.00500548305,cover=345.254059
				16:leaf=-0.105092011,cover=141.982468
			8:[f490<0.0816313997] yes=17,no=18,missing=17,gain=32.214386,cover=1679.10913
				17:leaf=0.0845353082,cover=385.427063
				18:leaf=0.0187043007,cover=1293.68201
		4:[f49<0.14728111] yes=9,no=10,missing=10,gain=34.6930466,cover=1172.8634
			9:[f193<0.237738311] yes=19,no=20,missing=19,gain=22.1033764,cover=162.129074
				19:leaf=0.12558344,cover=97.5543976
				20:leaf=-0.0246289652,cover=64.5746765
			10:[f225<0.27203536] yes=21,no=22,missing=21,gain=30.9596252,cover=1010.73425
				21:leaf=-0.0152835343,cover=797.57196
				22:leaf=-0.100956298,cover=213.162292
	2:[f209<0.0696160942] yes=5,no=6,missing=5,gain=19.6252937,cover=283.474548
		5:[f63<0.0532718003] yes=11,no=12,missing=11,gain=11.451355,cover=120.71022
			11:[f5<0.07689365] yes=23,no=24,missing=23,gain=11.9745951,cover=15.6297016
				23:leaf=-0.06594567,cover=12.2181034
				24:leaf=0.31495747,cover=3.41159821
			12:[f382<0.772185445] yes=25,no=26,missing=25,gain=11.1832809,cover=105.080521
				25:leaf=-0.160242409,cover=103.104095
				26:leaf=0.242668793,cover=1.97642434
		6:[f10<0.0514713004] yes=13,no=14,missing=13,gain=16.9898911,cover=162.764313
			13:[f222<0.427881092] yes=27,no=28,missing=27,gain=15.3596239,cover=140.483719
				27:leaf=-0.0630364865,cover=132.678375
				28:leaf=0.210148081,cover=7.80533934
			14:[f616<0.0358342491] yes=29,no=30,missing=29,gain=15.049119,cover=22.2805977
				29:leaf=0.434685946,cover=4.30106211
				30:leaf=0.0478065573,cover=17.9795361
booster[43]:
0:[f150<0.0807954967] yes=1,no=2,missing=1,gain=35.6671143,cover=3631.18921
	1:[f181<0.0713186488] yes=3,no=4,missing=3,gain=26.0875702,cover=1230.0321
		3:[f145<0.178040847] yes=7,no=8,missing=8,gain=21.6888847,cover=1063.50061
			7:[f472<0.378395557] yes=15,no=16,missing=15,gain=21.2117157,cover=239.818344
				15:leaf=0.0564403422,cover=169.829346
				16:leaf=-0.0736578628,cover=69.9889984
			8:[f225<0.263148904] yes=17,no=18,missing=17,gain=26.4811001,cover=823.682251
				17:leaf=-0.0308655556,cover=643.382385
				18:leaf=-0.117490731,cover=180.299881
		4:[f54<0.191402853] yes=9,no=10,missing=9,gain=30.4580154,cover=166.531555
			9:[f82<0.0379796512] yes=19,no=20,missing=19,gain=17.4305859,cover=125.81131
				19:leaf=0.0665600747,cover=107.303276
				20:leaf=0.273357242,cover=18.5080376
			10:[f552<0.112736747] yes=21,no=22,missing=21,gain=9.19604015,cover=40.7202492
				21:leaf=-0.122532107,cover=38.5677948
				22:leaf=0.236930132,cover=2.15245461
	2:[f450<0.0234887991] yes=5,no=6,missing=5,gain=27.168478,cover=2401.15698
		5:[f31<0.644824088] yes=11,no=12,missing=11,gain=22.345747,cover=542.694031
			11:[f616<0.601493597] yes=23,no=24,missing=24,gain=18.2195034,cover=482.018005
				23:leaf=0.0135373799,cover=302.713898
				24:leaf=0.0939006209,cover=179.304123
			12:[f373<0.617307782] yes=25,no=26,missing=26,gain=11.676034,cover=60.6760101
				25:leaf=0.205094174,cover=52.7773018
				26:leaf=-0.0497900397,cover=7.89871073
		6:[f594<0.02807175] yes=13,no=14,missing=13,gain=29.1942196,cover=1858.46301
			13:[f751<0.147620499] yes=27,no=28,missing=27,gain=15.2537766,cover=387.579285
				27:leaf=-0.0081028929,cover=227.826874
				28:leaf=-0.088602297,cover=159.752426
			14:[f670<0.2155222] yes=29,no=30,missing=29,gain=22.6273422,cover=1470.88367
				29:leaf=0.0357224047,cover=1056.96765
				30:leaf=-0.0193980243,cover=413.916046
booster[44]:
0:[f553<0.655629754] yes=1,no=2,missing=1,gain=25.7643738,cover=3626.92505
	1:[f31<0.762690425] yes=3,no=4,missing=3,gain=24.2800102,cover=3296.71655
		3:[f39<0.152546108] yes=7,no=8,missing=7,gain=25.5538559,cover=3207.17407
			7:[f47<0.107709348] yes=15,no=16,missing=15,gain=26.9867897,cover=2817.83618
				15:leaf=-0.0471830815,cover=783.775024
				16:leaf=-0.00352087687,cover=2034.06116
			8:[f111<0.139703155] yes=17,no=18,missing=17,gain=19.5774803,cover=389.337952
				17:leaf=0.0262096804,cover=361.55603
				18:leaf=0.19774583,cover=27.7819138
		4:[f40<0.249137998] yes=9,no=10,missing=9,gain=19.3445759,cover=89.542366
			9:[f670<0.0831572488] yes=19,no=20,missing=19,gain=16.1394215,cover=67.7073517
				19:leaf=0.0441848934,cover=32.4236755
				20:leaf=0.240023047,cover=35.2836723
			10:[f155<0.093651548] yes=21,no=22,missing=21,gain=8.36658955,cover=21.8350143
				21:leaf=-0.160405084,cover=13.2621555
				22:leaf=0.0827859566,cover=8.57285976
	2:[f243<0.0772539005] yes=5,no=6,missing=5,gain=19.0310535,cover=330.208588
		5:[f48<0.10614495] yes=11,no=12,missing=11,gain=15.5041027,cover=139.396179
			11:[f58<0.393081337] yes=23,no=24,missing=23,gain=13.785202,cover=87.0219421
				23:leaf=0.107157841,cover=55.4201698
				24:leaf=-0.0565363131,cover=31.6017685
			12:[f742<0.33545211] yes=25,no=26,missing=25,gain=14.5413713,cover=52.3742447
				25:leaf=-0.137016416,cover=43.2581329
				26:leaf=0.130531356,cover=9.11611366
		6:[f729<0.273890853] yes=13,no=14,missing=13,gain=14.2873545,cover=190.812393
			13:[f711<0.538764715] yes=27,no=28,missing=28,gain=9.41035843,cover=155.402252
				27:leaf=0.148916721,cover=113.552467
				28:leaf=0.0370093025,cover=41.8497849
			14:[f657<0.491952479] yes=29,no=30,missing=29,gain=8.10497284,cover=35.4101448
				29:leaf=-0.0608232282,cover=30.4777718
				30:leaf=0.194194302,cover=4.93237209
booster[45]:
0:[f88<0.0307816491] yes=1,no=2,missing=1,gain=29.0730133,cover=3604.24097
	1:[f297<0.609239221] yes=3,no=4,missing=3,gain=27.1174488,cover=3296.53418
		3:[f74<0.310241878] yes=7,no=8,missing=7,gain=24.1883755,cover=3248.98975
			7:[f52<0.0391242988] yes=15,no=16,missing=15,gain=27.9843674,cover=2436.52979
				15:leaf=-0.0158082377,cover=1722.26001
				16:leaf=0.0312507115,cover=714.269653
			8:[f679<0.537846923] yes=17,no=18,missing=17,gain=25.1949501,cover=812.460022
				17:leaf=0.0492059998,cover=735.804565
				18:leaf=-0.0706520155,cover=76.6555023
		4:[f657<0.453531802] yes=9,no=10,missing=9,gain=8.18234539,cover=47.5445328
			9:[f331<0.0349287018] yes=19,no=20,missing=19,gain=5.4588089,cover=39.8753853
				19:leaf=-0.193804324,cover=38.2999115
				20:leaf=0.127407596,cover=1.57547116
			10:[f72<0.0435230993] yes=21,no=22,missing=21,gain=8.82103157,cover=7.66914988
				21:leaf=0.406374067,cover=1.05358148
				22:leaf=-0.0617373064,cover=6.61556864
	2:[f82<0.0538926497] yes=5,no=6,missing=5,gain=29.7544842,cover=307.706604
		5:[f626<0.108698145] yes=11,no=12,missing=11,gain=14.1709547,cover=194.225479
			11:[f24<0.362779051] yes=23,no=24,missing=23,gain=11.7254705,cover=185.120789
				23:leaf=-0.130602956,cover=174.049515
				24:leaf=0.0761763975,cover=11.0712748
			12:[f56<0.156165004] yes=25,no=26,missing=25,gain=7.08295059,cover=9.10468864
				25:leaf=0.203102633,cover=7.66589022
				26:leaf=-0.19269824,cover=1.43879807
		6:[f79<0.238655239] yes=13,no=14,missing=14,gain=15.8452883,cover=113.481125
			13:[f427<0.320425153] yes=27,no=28,missing=27,gain=14.6643276,cover=73.7132492
				27:leaf=0.00546204532,cover=45.106842
				28:leaf=0.186740965,cover=28.6064091
			14:[f128<0.217687547] yes=29,no=30,missing=29,gain=12.6041098,cover=39.7678719
				29:leaf=-0.119662523,cover=35.0940666
				30:leaf=0.202871948,cover=4.67380428
booster[46]:
0:[f141<0.155095905] yes=1,no=2,missing=1,gain=28.445261,cover=3575.96045
	1:[f67<0.338363707] yes=3,no=4,missing=3,gain=28.2561016,cover=2415.79956
		3:[f632<0.295101255] yes=7,no=8,missing=7,gain=21.8558178,cover=1714.94202
			7:[f49<0.23699376] yes=15,no=16,missing=15,gain=21.6375732,cover=1579.46643
				15:leaf=-0.0283889379,cover=402.915436
				16:leaf=0.0252601933,cover=1176.5509
			8:[f139<0.431636363] yes=17,no=18,missing=17,gain=15.4683704,cover=135.475677
				17:leaf=-0.03497722,cover=105.465485
				18:leaf=-0.196153089,cover=30.0101986
		4:[f238<0.166073412] yes=9,no=10,missing=9,gain=30.2924919,cover=700.857544
			9:[f274<0.513809681] yes=19,no=20,missing=19,gain=16.0993004,cover=256.56073
				19:leaf=-0.116364054,cover=223.843887
				20:leaf=0.0329174958,cover=32.7168312
			10:[f299<0.220026046] yes=21,no=22,missing=21,gain=22.1184235,cover=444.296814
				21:leaf=-0.0358461998,cover=339.408905
				22:leaf=0.0688245147,cover=104.887894
	2:[f738<0.0742937475] yes=5,no=6,missing=6,gain=22.0906563,cover=1160.16089
		5:[f213<0.0819083452] yes=11,no=12,missing=11,gain=14.9069548,cover=121.589653
			11:[f618<0.17220211] yes=23,no=24,missing=24,gain=12.2086325,cover=62.8053055
				23:leaf=0.0933151841,cover=35.3010941
				24:leaf=-0.0816192999,cover=27.5042114
			12:[f276<0.1039083] yes=25,no=26,missing=25,gain=16.7525101,cover=58.7843475
				25:leaf=-0.00536907697,cover=26.889904
				26:leaf=-0.218391225,cover=31.8944435
		6:[f173<0.121741146] yes=13,no=14,missing=13,gain=20.3318863,cover=1038.57129
			13:[f272<0.348568708] yes=27,no=28,missing=27,gain=16.7953682,cover=630.521362
				27:leaf=0.00784721598,cover=593.77594
				28:leaf=0.145453095,cover=36.7454224
			14:[f648<0.691329002] yes=29,no=30,missing=30,gain=16.7708778,cover=408.049896
				29:leaf=0.0443319716,cover=271.431946
				30:leaf=0.130330533,cover=136.617966
booster[47]:
0:[f132<0.03525085] yes=1,no=2,missing=2,gain=27.7913666,cover=3584.79297
	1:[f500<0.0713273436] yes=3,no=4,missing=3,gain=16.3133793,cover=142.884308
		3:[f371<0.138804853] yes=7,no=8,missing=8,gain=13.3977604,cover=129.602737
			7:[f252<0.243786991] yes=15,no=16,missing=16,gain=12.5056458,cover=54.500721
				15:leaf=-0.0962930843,cover=37.0745201
				16:leaf=0.104612961,cover=17.4262028
			8:[f254<0.0410640985] yes=17,no=18,missing=18,gain=11.1761007,cover=75.1020126
				17:leaf=0.109351151,cover=5.01755714
				18:leaf=-0.182614192,cover=70.0844498
		4:[f636<0.141071051] yes=9,no=10,missing=10,gain=7.24749231,cover=13.2815828
			9:[f185<0.160585761] yes=19,no=20,missing=19,gain=5.36385727,cover=6.78308535
				19:leaf=-0.161281109,cover=3.96975994
				20:leaf=0.154537931,cover=2.81332541
			10:[f630<0.0586594008] yes=21,no=22,missing=22,gain=1.65263522,cover=6.49849701
				21:leaf=0.0122958738,cover=1.06999028
				22:leaf=0.292828977,cover=5.42850685
	2:[f72<0.555829048] yes=5,no=6,missing=5,gain=22.7437706,cover=3441.90869
		5:[f358<0.0569657497] yes=11,no=12,missing=11,gain=22.3301678,cover=3386.3125
			11:[f423<0.115094647] yes=23,no=24,missing=23,gain=25.5768223,cover=3262.39941
				23:leaf=0.0186010469,cover=1424.41882
				24:leaf=-0.017092986,cover=1837.98059
			12:[f292<0.511007309] yes=25,no=26,missing=25,gain=13.358964,cover=123.913216
				25:leaf=0.108904064,cover=109.025551
				26:leaf=-0.0885861069,cover=14.8876629
		6:[f76<0.1820997] yes=13,no=14,missing=13,gain=22.753233,cover=55.5962029
			13:[f427<0.234662056] yes=27,no=28,missing=28,gain=11.9048271,cover=18.6515102
				27:leaf=0.140763611,cover=7.20992184
				28:leaf=-0.170263991,cover=11.4415874
			14:[f3<0.154043645] yes=29,no=30,missing=30,gain=10.95263,cover=36.9446945
				29:leaf=-0.0665729269,cover=4.35122156
				30:leaf=0.257452816,cover=32.5934715
booster[48]:
0:[f617<0.228819251] yes=1,no=2,missing=1,gain=26.3351269,cover=3558.60522
	1:[f299<0.0286993999] yes=3,no=4,missing=4,gain=25.3079052,cover=3479.87866
		3:[f252<0.0483884998] yes=7,no=8,missing=7,gain=11.2883291,cover=51.0886383
			7:[f11<0.0873038024] yes=15,no=16,missing=15,gain=10.6469698,cover=15.2344627
				15:leaf=0.132515579,cover=9.16855717
				16:leaf=-0.187101141,cover=6.06590557
			8:[f544<0.542685151] yes=17,no=18,missing=17,gain=7.57353306,cover=35.8541718
				17:leaf=-0.232321382,cover=32.4187546
				18:leaf=0.0636714324,cover=3.43541861
		4:[f36<0.195648551] yes=9,no=10,missing=9,gain=25.623703,cover=3428.79004
			9:[f81<0.0929707438] yes=19,no=20,missing=19,gain=29.6245632,cover=3035.48096
				19:leaf=-0.0291402917,cover=811.288757
				20:leaf=0.0154844886,cover=2224.19238
			10:[f252<0.144262001] yes=21,no=22,missing=22,gain=18.7085724,cover=393.308899
				21:leaf=0.00987104978,cover=134.400177
				22:leaf=-0.0819705799,cover=258.908722
	2:[f545<0.249624044] yes=5,no=6,missing=6,gain=12.8933697,cover=78.7267456
		5:[f419<0.20137465] yes=11,no=12,missing=12,gain=13.1169939,cover=17.1448326
			11:[f31<0.416427374] yes=23,no=24,missing=24,gain=7.81735659,cover=7.85906601
				23:leaf=-0.0675303936,cover=5.80359745
				24:leaf=-0.477775782,cover=2.05546832
			12:[f740<0.085576199] yes=25,no=26,missing=26,gain=5.48152447,cover=9.28576565
				25:leaf=-0.0956973806,cover=2.79324937
				26:leaf=0.207493111,cover=6.49251604
		6:[f592<0.119080752] yes=13,no=14,missing=13,gain=8.85011768,cover=61.581913
			13:[f96<0.0412695482] yes=27,no=28,missing=28,gain=8.38167095,cover=59.0962715
				27:leaf=-0.0628018975,cover=5.188272
				28:leaf=0.192896634,cover=53.9080009
			14:[f150<0.0609138981] yes=29,no=30,missing=29,gain=0.0853184983,cover=2.48564076
				29:leaf=-0.201314256,cover=1.39989734
				30:leaf=-0.050136935,cover=1.08574343
booster[49]:
0:[f7<0.090699099] yes=1,no=2,missing=1,gain=27.090044,cover=3568.16382
	1:[f203<0.0312728509] yes=3,no=4,missing=3,gain=23.8739948,cover=3490.04199
		3:[f10<0.217829093] yes=7,no=8,missing=8,gain=20.8628941,cover=3131.60107
			7:[f86<0.0359021015] yes=15,no=16,missing=15,gain=25.2140083,cover=381.733856
				15:leaf=0.0704748258,cover=331.133484
				16:leaf=-0.0799873769,cover=50.6003914
			8:[f633<0.0428499505] yes=17,no=18,missing=17,gain=22.2360573,cover=2749.86719
				17:leaf=-0.00479002204,cover=2528.94604
				18:leaf=0.061236389,cover=220.921188
		4:[f436<0.159964353] yes=9,no=10,missing=9,gain=26.2074413,cover=358.44101
			9:[f137<0.313469768] yes=19,no=20,missing=19,gain=13.8946629,cover=147.00058
				19:leaf=-0.12996693,cover=135.88382
				20:leaf=0.0959884077,cover=11.1167526
			10:[f499<0.113983646] yes=21,no=22,missing=21,gain=20.0519085,cover=211.44043
				21:leaf=-0.0941297859,cover=65.0836258
				22:leaf=0.0384618081,cover=146.356812
	2:[f39<0.112685546] yes=5,no=6,missing=5,gain=12.612464,cover=78.1218185
		5:[f80<0.383738339] yes=11,no=12,missing=12,gain=7.14484262,cover=56.6249542
			11:[f738<0.500267863] yes=23,no=24,missing=23,gain=4.7989378,cover=8.06248379
				23:leaf=-0.0624557212,cover=7.03983879
				24:leaf=0.282235503,cover=1.022645
			12:[f489<0.1653741] yes=25,no=26,missing=26,gain=6.84630537,cover=48.5624695
				25:leaf=-0.0104110679,cover=7.04697466
				26:leaf=-0.22477968,cover=41.5154953
		6:[f157<0.397082627] yes=13,no=14,missing=14,gain=13.6383915,cover=21.4968605
			13:[f180<0.0862901956] yes=27,no=28,missing=27,gain=9.39784908,cover=17.2104149
				27:leaf=0.290032089,cover=5.38199139
				28:leaf=-0.0102806399,cover=11.8284225
			14:[f436<0.570160389] yes=29,no=30,missing=30,gain=2.16880751,cover=4.28644705
				29:leaf=-0.332768649,cover=3.27766824
				30:leaf=-0.00337643409,cover=1.00877869
booster[50]:
0:[f513<0.459452242] yes=1,no=2,missing=1,gain=22.732481,cover=3533.2561
	1:[f87<0.241633654] yes=3,no=4,missing=3,gain=21.5091686,cover=3241.49146
		3:[f424<0.0377847031] yes=7,no=8,missing=8,gain=23.4183083,cover=3060.5498
			7:[f499<0.316443205] yes=15,no=16,missing=15,gain=5.37530088,cover=14.3044462
				15:leaf=-0.28953582,cover=11.9054127
				16:leaf=0.0262687393,cover=2.39903307
			8:[f302<0.165248156] yes=17,no=18,missing=17,gain=23.5015717,cover=3046.24536
				17:leaf=0.0123588182,cover=2979.47534
				18:leaf=-0.106755555,cover=66.7698517
		4:[f452<0.167629361] yes=9,no=10,missing=10,gain=12.2424631,cover=180.941727
			9:[f711<0.257329285] yes=19,no=20,missing=20,gain=9.47772694,cover=79.4286499
				19:leaf=-0.0789505765,cover=35.5185127
				20:leaf=0.0582475737,cover=43.9101372
			10:[f344<0.039560698] yes=21,no=22,missing=22,gain=11.7650232,cover=101.513084
				21:leaf=0.205006763,cover=3.7287302
				22:leaf=-0.121859841,cover=97.7843552
	2:[f130<0.230235547] yes=5,no=6,missing=5,gain=16.5009785,cover=291.764618
		5:[f396<0.0463801026] yes=11,no=12,missing=11,gain=18.3687553,cover=163.862671
			11:[f744<0.41552639] yes=23,no=24,missing=24,gain=11.8329325,cover=25.2142525
				23:leaf=0.175535485,cover=14.1519566
				24:leaf=-0.090899311,cover=11.0622969
			12:[f101<0.312824696] yes=25,no=26,missing=25,gain=12.1928434,cover=138.648422
				25:leaf=-0.137337238,cover=132.066727
				26:leaf=0.127463475,cover=6.58169699
		6:[f58<0.140284851] yes=13,no=14,missing=14,gain=17.8467884,cover=127.901939
			13:[f348<0.284859121] yes=27,no=28,missing=27,gain=15.8533192,cover=29.3522625
				27:leaf=0.17941913,cover=27.0776196
				28:leaf=-0.291965932,cover=2.27464461
			14:[f34<0.0628494024] yes=29,no=30,missing=29,gain=10.8883352,cover=98.549675
				29:leaf=-0.0618598349,cover=89.845314
				30:leaf=0.161437199,cover=8.70436573
booster[51]:
0:[f466<0.17024824] yes=1,no=2,missing=2,gain=20.3057137,cover=3543.53784
	1:[f81<0.133534506] yes=3,no=4,missing=4,gain=18.0575905,cover=170.300598
		3:[f675<0.116439149] yes=7,no=8,missing=7,gain=13.2897806,cover=56.4888954
			7:[f249<0.1035318] yes=15,no=16,missing=16,gain=9.91954708,cover=22.9013538
				15:leaf=-0.324752629,cover=6.83056831
				16:leaf=-0.0465429276,cover=16.0707855
			8:[f47<0.240627795] yes=17,no=18,missing=18,gain=11.0649071,cover=33.5875397
				17:leaf=-0.0118908128,cover=25.6538258
				18:leaf=0.246135622,cover=7.93371582
		4:[f70<0.0366572514] yes=9,no=10,missing=10,gain=10.4607172,cover=113.811714
			9:[f405<0.183621705] yes=19,no=20,missing=19,gain=6.31121922,cover=7.17105579
				19:leaf=0.04969652,cover=4.21163225
				20:leaf=-0.292335987,cover=2.95942354
			10:[f513<0.489950776] yes=21,no=22,missing=21,gain=12.2469501,cover=106.640656
				21:leaf=0.141603693,cover=102.931252
				22:leaf=-0.193586037,cover=3.70940661
	2:[f288<0.501951754] yes=5,no=6,missing=5,gain=21.4365482,cover=3373.23706
		5:[f506<0.674326122] yes=11,no=12,missing=11,gain=21.9364986,cover=3183.19702
			11:[f141<0.288986266] yes=23,no=24,missing=23,gain=19.7765732,cover=3179.93652
				23:leaf=-0.00579118123,cover=2852.05542
				24:leaf=0.0460025035,cover=327.881012
			12:[f315<0.140935853] yes=25,no=26,missing=25,gain=10.8631897,cover=3.26059484
				25:leaf=0.688740909,cover=1.76396382
				26:leaf=0.011733355,cover=1.49663091
		6:[f292<0.455186069] yes=13,no=14,missing=13,gain=13.0083389,cover=190.040146
			13:[f137<0.190589547] yes=27,no=28,missing=27,gain=14.5706959,cover=176.753098
				27:leaf=-0.116070293,cover=132.858963
				28:leaf=0.0163737517,cover=43.8941345
			14:[f74<0.233182251] yes=29,no=30,missing=30,gain=9.83609009,cover=13.2870531
				29:leaf=-0.0286888368,cover=7.95253277
				30:leaf=0.302140206,cover=5.33452082
booster[52]:
0:[f272<0.200423449] yes=1,no=2,missing=1,gain=22.1085014,cover=3504.95508
	1:[f441<0.190193594] yes=3,no=4,missing=4,gain=20.2390575,cover=2697.11597
		3:[f364<0.26801008] yes=7,no=8,missing=7,gain=24.725605,cover=1244.63171
			7:[f103<0.230403006] yes=15,no=16,missing=15,gain=17.5671768,cover=625.736023
				15:leaf=0.0603882074,cover=405.152496
				16:leaf=-0.00968456361,cover=220.583527
			8:[f632<0.325961828] yes=17,no=18,missing=17,gain=24.5719318,cover=618.89563
				17:leaf=-0.0103213238,cover=581.119324
				18:leaf=-0.174782559,cover=37.77631
		4:[f67<0.272955954] yes=9,no=10,missing=9,gain=25.7158279,cover=1452.48425
			9:[f48<0.245196551] yes=19,no=20,missing=20,gain=26.5554218,cover=828.630859
				19:leaf=0.0326236561,cover=405.217285
				20:leaf=-0.0389148667,cover=423.413574
			10:[f214<0.0803226978] yes=21,no=22,missing=21,gain=19.9195366,cover=623.853394
				21:leaf=-0.0626679286,cover=612.446106
				22:leaf=0.193829373,cover=11.4072704
	2:[f408<0.16098696] yes=5,no=6,missing=5,gain=18.3892975,cover=807.839172
		5:[f624<0.034484297] yes=11,no=12,missing=12,gain=18.0408764,cover=793.391846
			11:[f37<0.125290751] yes=23,no=24,missing=24,gain=5.29788637,cover=3.87752223
				23:leaf=-0.00363532151,cover=1.29639101
				24:leaf=-0.47831437,cover=2.58113146
			12:[f156<0.170599937] yes=25,no=26,missing=25,gain=17.2445908,cover=789.514343
				25:leaf=0.0255977493,cover=742.014648
				26:leaf=0.148784444,cover=47.4996681
		6:[f367<0.0572849512] yes=13,no=14,missing=13,gain=5.77451181,cover=14.4473381
			13:[f137<0.0569563992] yes=27,no=28,missing=27,gain=5.59616947,cover=13.4463406
				27:leaf=-0.0448201224,cover=5.0190568
				28:leaf=-0.316579849,cover=8.42728424
			14:leaf=0.162840471,cover=1.0009973
booster[53]:
0:[f1<0.0321436524] yes=1,no=2,missing=1,gain=22.4397774,cover=3496.67188
	1:[f343<0.0607369021] yes=3,no=4,missing=3,gain=20.8117599,cover=3322.5625
		3:[f357<0.160358801] yes=7,no=8,missing=7,gain=20.8871574,cover=3238.34912
			7:[f114<0.247332364] yes=15,no=16,missing=15,gain=24.6478367,cover=2169.62256
				15:leaf=-0.0174560286,cover=1848.26428
				16:leaf=0.0424759798,cover=321.358215
			8:[f348<0.183157861] yes=17,no=18,missing=17,gain=22.4057655,cover=1068.72656
				17:leaf=0.00784937944,cover=778.051392
				18:leaf=0.072858572,cover=290.67514
		4:[f551<0.348631918] yes=9,no=10,missing=9,gain=12.9141445,cover=84.2134857
			9:[f50<0.0944291502] yes=19,no=20,missing=19,gain=10.8929529,cover=75.4540329
				19:leaf=0.0709381476,cover=48.7824745
				20:leaf=0.230407432,cover=26.6715603
			10:[f531<0.152287856] yes=21,no=22,missing=21,gain=8.41328526,cover=8.75944901
				21:leaf=0.0650580153,cover=4.64736938
				22:leaf=-0.295585245,cover=4.11207962
	2:[f333<0.0645862967] yes=5,no=6,missing=5,gain=14.1633968,cover=174.109253
		5:[f616<0.758998573] yes=11,no=12,missing=11,gain=7.68217182,cover=40.2849808
			11:[f571<0.028294351] yes=23,no=24,missing=24,gain=4.51548815,cover=38.8384476
				23:leaf=0.13341625,cover=1.02974641
